nep4 5 C N H Pb I 
cutoff 8 4 113 18
n_max 4 4
basis_size 8 8
l_max 4 2 0
ANN 30 0
  2.4306886e-01
 -6.4999908e-02
 -2.1807289e-01
 -3.0522498e-01
 -6.1302096e-01
  1.0655088e+00
 -1.8432405e+00
  6.5358967e-01
  3.7089500e-03
  4.8319761e-02
  7.8847635e-01
  1.8264130e-01
  3.2367740e-02
 -8.3470203e-02
 -4.2402416e-02
 -5.5040950e-01
  1.1144749e+00
  1.1888275e-01
  6.5881360e-01
 -9.7318552e-02
  6.6663748e-01
 -2.1194797e+00
 -2.0064924e+00
 -6.8548620e-01
  6.7208213e-01
 -2.2412250e+00
  3.3834364e-02
  1.9676384e-01
 -6.7548953e-02
  1.2635059e-02
  2.5410047e-01
 -7.2419234e-02
 -5.4489639e-02
 -4.0073968e-02
  3.3871144e-01
  2.6731867e-01
 -2.6683629e-01
  1.3752778e-02
  8.4140830e-02
  1.1289972e-03
 -1.6773599e+00
 -3.4560978e-02
  5.4974642e-02
  4.2443108e-02
 -3.1567812e-02
  2.0518761e-02
 -1.6555347e-02
 -5.8765030e-03
 -9.6391551e-02
  2.1326974e-02
  5.6378614e-02
 -7.0813924e-01
  1.9795358e-02
 -6.5224551e-02
 -6.2846583e-03
 -1.0392629e-01
  2.9448582e-02
  5.2513080e-03
  7.4104019e-02
 -3.0098297e-02
 -9.3102112e-02
 -1.1711584e-02
  1.2313440e-02
  3.1680848e-02
 -4.3287466e-04
  5.3475313e-02
  6.7626216e-02
 -5.5304516e-02
  5.7609871e-02
  2.5739236e-02
  3.6192292e-03
  2.1642057e-02
 -1.5812235e-02
  8.9316234e-02
  6.1507832e-02
 -1.6576651e-02
  5.3170186e-02
 -2.3960320e-02
  8.1553636e-03
 -5.0747645e-01
  3.1107541e-02
 -1.5987536e-02
  2.5470480e-02
 -4.0327180e-02
  1.7668188e-03
 -1.1388092e-01
 -2.5858793e-02
 -3.8251239e-03
  5.1547494e-02
 -2.7124079e-02
  1.9441096e-01
 -5.7854038e-02
 -1.0259964e+00
  1.0400569e+00
  7.9613380e-02
 -1.0261402e-02
 -1.5639658e-01
 -4.2990360e-02
  3.4484595e-02
 -5.6904559e-03
  3.7484620e-02
 -2.0172049e-03
 -2.1424500e-02
  9.8928250e-04
  7.5988350e-03
  9.6055456e-03
  9.4378449e-02
 -2.0734344e-02
  2.4888705e-02
  3.1707322e-04
 -1.7626177e-03
  1.4421047e-02
 -2.1805640e-02
  1.8721735e-02
 -1.8272920e-02
  3.2650005e-02
  3.7548665e-02
  3.3787396e-02
 -6.6249291e-03
 -6.5486454e-03
 -1.6323792e+00
 -8.3853841e-01
 -4.2488012e-03
  6.6582426e-02
  1.1231129e+00
 -4.1385230e-02
 -2.4730206e+00
  1.4317581e-01
  7.5362436e-02
 -1.8187517e-02
 -2.8891864e+00
 -1.4060229e+00
 -1.5760924e-01
 -2.3910508e-01
 -2.2148792e-02
  2.3351969e-01
 -1.2187708e-01
 -1.3467699e+00
 -1.1084727e+00
 -3.3094447e-02
 -5.6819481e-01
 -7.4096739e-01
  6.1399299e-01
  5.7604027e-01
  2.6107326e-01
  1.0350959e+00
 -2.1380449e-02
  1.4703491e-01
 -7.6965424e-03
 -3.4242805e-02
 -3.3753255e-01
 -2.6398221e-01
  4.1597554e-01
 -4.8777273e-01
  5.2215987e-01
  1.4577835e+00
 -2.0836105e+00
  1.9710176e+00
 -1.9353636e-01
  1.6872191e-01
 -1.6656466e+00
 -3.2652400e-02
  7.8858060e-01
  1.2437837e+00
  7.7850692e-02
  4.5588809e-01
  4.7165319e-01
  8.9765435e-01
  4.1543958e-01
 -8.3782874e-02
 -6.8793404e-01
  9.0714586e-01
  6.0529786e-01
 -6.2191043e-02
  1.5545653e-02
  2.9783845e-01
  3.8317642e-01
  2.8707494e-03
  3.6140643e-02
  1.6002286e-02
 -7.6361492e-02
 -2.0795107e-02
  4.0325462e-03
 -3.9132348e-01
  2.3202820e+00
 -2.2455046e-03
 -1.5218327e-02
  1.3448875e-01
  7.7246460e-03
 -1.2027909e-02
 -9.4610089e-03
 -4.6578854e-02
 -1.8730091e-02
 -6.4137477e-01
 -7.7859280e-03
 -5.1815115e-02
  2.0815093e-02
  6.2813661e-03
 -4.4559534e-03
  9.9183200e-03
  4.3605126e-02
  1.8552367e-02
  9.3503870e-02
  3.1951526e-03
  5.9865024e-03
 -8.5383080e-02
  9.3922921e-02
 -8.1880592e-02
  5.9314243e-02
 -1.9199967e-02
  3.9954744e-03
 -2.8563403e-02
  1.8668826e-03
  3.8658023e-02
 -6.8783022e-02
 -2.7077163e-02
  4.3819115e-02
  9.2203220e-05
 -8.1078000e-03
  3.6368828e-02
 -1.8851303e-02
 -6.2895613e-04
 -3.1671565e-02
  9.6611166e-01
 -2.2420168e-02
 -3.9168373e-02
  1.1742830e-02
  5.0360445e-02
  5.6371514e-02
 -4.5325395e-02
 -4.6579544e-03
 -3.0901712e-01
 -7.4133743e-03
  3.1644449e-02
  6.0576372e-02
  3.0284096e-02
  3.0464280e-02
 -3.2163475e-02
 -8.8450156e-02
  6.4359345e-02
  6.5314895e-01
 -6.3332355e-01
  2.7549005e-01
  3.3894923e-02
 -1.6643842e+00
  7.3700488e-02
 -4.2451923e-03
  4.6975005e-02
  3.4638157e-03
 -1.2261836e-02
  2.4905193e-01
  1.4675595e+00
  3.3130193e-01
  3.2299119e-01
  3.2391008e-02
 -9.5124859e-01
 -6.9000787e-01
 -2.8512635e+00
  5.2214319e-01
 -7.3128245e-03
  6.1508629e-02
 -9.4129413e-01
  1.7024729e+00
  1.2621752e-02
  4.7516371e-03
 -1.0189450e-02
 -2.3391038e-02
 -2.6525378e-01
  1.7669355e-02
 -1.0660475e-03
  2.5336226e-02
 -2.9426780e-02
 -2.1813812e-02
  3.4558017e-02
 -1.5529495e-01
  3.1305358e-02
  3.8741514e-01
 -1.1470216e-02
  2.3001639e-02
  4.7214972e-03
  1.5108742e-01
  3.7227339e-01
 -1.6828828e-02
  7.5111315e-02
 -1.2320615e-02
 -2.6912518e-02
  2.5218299e-02
  2.7978748e-02
  1.2448725e-03
 -4.8509993e-02
 -1.8405835e-01
  3.8937411e-01
  3.8940292e-02
  7.7718617e-03
 -1.6010485e+00
 -6.1097614e-02
  4.0763291e-03
 -9.5114015e-02
 -2.5867032e-02
 -3.7379961e-02
  8.4798470e-02
 -4.6811306e-01
  2.1526530e-01
  7.7699885e-02
  9.7109091e-01
  9.7134548e-01
 -4.6339360e-01
  6.4674515e-01
  3.3165962e-02
 -1.6206969e-02
 -3.2930735e-02
  7.1679451e-02
 -7.8419432e-02
 -7.1723342e-02
 -1.9309784e-01
 -6.6736273e-02
  6.6007549e-01
  7.1050090e-01
 -1.8473391e-01
 -1.4151712e-02
 -1.9037822e-01
 -8.2392795e-03
 -3.0674823e-02
  2.7424642e-01
 -4.6313269e-04
 -3.9232713e-01
  3.8357882e-03
  1.8998605e+00
  5.1963357e-03
 -1.8283812e-02
 -1.4602343e+00
 -1.1710782e+00
  8.2336374e-02
 -9.2756426e-01
 -4.7933507e-01
 -5.8026350e-01
  2.7985504e-01
  1.5016952e-02
  3.1173069e-02
  1.6511554e-02
  2.1138458e-01
 -7.7575290e-01
 -1.0132926e+00
 -3.7417403e-01
 -2.2498465e-03
  1.8962661e+00
 -2.5377002e-01
 -8.9553207e-01
  4.1215238e-01
 -4.6296660e-02
  1.8283005e-01
 -1.7296615e+00
 -1.9577764e-01
 -6.8198913e-01
 -3.9797607e-01
  3.9899580e-02
 -8.2383281e-01
 -8.4598005e-02
 -3.5812759e-01
  8.3539955e-02
  2.5162637e-01
 -2.4531302e+00
  2.6239878e-01
  1.0692259e+00
 -1.6129984e+00
  6.8542004e-02
  5.2872264e-01
  1.1257928e-01
  5.4197021e-02
 -6.4451951e-03
 -6.8340605e-01
 -9.5561230e-01
  1.8551644e-03
 -2.5289297e-01
 -7.5194255e-02
  2.0993948e-01
  8.1576014e-01
 -3.0204138e-01
  1.8154180e+00
 -2.7339706e-02
 -4.2377181e-02
 -2.8995413e-01
 -1.0530896e-01
 -5.4327232e-01
  1.8842551e-01
 -5.4224378e-01
  3.2786027e-02
  3.9696272e-02
  3.7709855e-02
 -7.2862312e-02
  8.8394411e-02
  3.0483415e-02
 -8.7835379e-03
  1.9389983e-02
 -4.5820475e-03
 -4.6924561e-02
  1.6407627e-03
 -1.2614586e-02
  5.9986147e-03
 -6.1691403e-03
  3.3469718e-02
 -1.1271784e-02
  9.7524755e-02
 -2.0111816e-02
  7.5286194e-03
  8.8768348e-04
  5.0896432e-02
  8.6076140e-01
  1.9875191e-01
 -5.8059726e-02
 -1.3287197e-01
  7.9183271e-03
 -2.3228663e-04
 -5.1294476e-02
 -9.6781757e-03
  6.0120981e-02
 -4.7403369e-02
 -4.7170218e-02
 -7.8203566e-03
  3.1637510e-03
  7.9559648e-01
  6.4275914e-01
  5.7053912e-01
  1.5301535e+00
  2.1474999e-01
  1.3742550e-01
  6.0643941e-01
  4.5821708e-01
 -6.8499729e-02
  9.3564473e-02
 -4.8337258e-02
  6.3202137e-01
 -9.1596729e-01
 -1.5997028e+00
 -1.9841762e-01
 -1.6035186e-01
 -5.4312844e-02
 -1.3537551e-01
  7.4387975e-03
  6.6636300e-01
  5.1770890e-03
  3.7382054e-01
  5.9201872e-01
 -6.3878417e-02
 -2.6423538e-03
  2.3480782e-02
 -6.5835960e-02
 -1.1887396e-01
 -7.7023149e-02
  2.0611277e-02
  3.9837551e-01
  1.2531973e-01
  3.6702746e-01
 -1.4128690e+00
  3.0603102e-01
 -1.0557953e-01
 -1.4168742e-01
  2.8543050e+00
  2.0833793e+00
 -7.8832135e-02
  6.2477744e-01
 -3.3712247e-01
 -4.4619223e-01
  8.8409948e-01
  9.3736216e-02
 -1.4133592e+00
  4.8719531e-01
  1.9710952e-01
  9.5492113e-01
 -6.5616393e-03
  5.2484626e-01
  1.1078748e-01
 -7.6065761e-01
  4.9207848e-01
  5.1223397e-02
  1.2564037e+00
  2.8958518e-02
  3.1064042e-01
  3.9845622e-01
 -3.7084550e-02
 -4.7651835e-02
 -1.3789758e-01
 -4.7801945e-02
 -3.3366729e-02
 -2.9163742e-01
 -2.2609923e+00
  2.0586638e+00
 -6.1660476e-02
 -6.0028434e-02
 -3.4298256e-02
  1.7373899e-01
  1.4125179e+00
 -7.7649134e-01
  1.2549897e-01
  2.8837133e-02
  1.2867453e+00
  5.6618005e-01
 -9.8492223e-01
  2.8655218e-02
 -5.0377585e-03
 -2.5011775e+00
  2.6565942e-01
 -1.5565160e-01
 -1.2109981e-02
 -2.4694394e-02
 -2.0489771e-02
  2.0639033e-03
  5.6792609e-03
 -4.6948478e-02
  1.1117609e-02
 -1.2566590e-01
  9.5560662e-02
 -1.4828578e+00
 -1.0019046e-01
 -2.3026930e-01
  1.0902430e+00
  2.2572015e-01
 -4.1994604e-01
 -2.1141352e-02
  1.9700846e-01
 -3.3736832e-02
 -8.2514608e-01
 -7.6055437e-02
  9.6077406e-01
 -3.4494475e-02
 -1.5013522e-01
 -8.6199379e-01
  1.1026061e+00
  3.6486671e+00
  6.1059608e-03
 -4.2161673e-01
 -1.1304995e+00
  7.4806683e-02
  1.5578051e-01
  1.4523373e-02
 -8.6203945e-01
 -1.0131499e+00
  2.3419724e-01
  1.3245470e-03
  1.4629437e-01
 -1.3586268e+00
  8.8404976e-02
  5.3796738e-01
 -5.6196928e-01
  1.1984558e+00
 -1.1519122e-02
  1.6616549e+00
  6.8881410e-01
  9.5617194e-03
  9.6632294e-02
  7.5830775e-01
  1.2448862e+00
 -3.9376262e-01
 -8.2632327e-01
  6.5624766e-02
 -5.0643110e-01
  9.0436333e-01
 -1.0764999e+00
  5.1219749e-01
 -5.0900507e-01
 -4.5362288e-01
 -1.5276184e+00
 -1.1832373e+00
  7.0880669e-01
  7.4630415e-01
 -1.5482372e+00
 -6.3966340e-03
  2.0454971e-01
 -4.8328030e-01
 -5.2411645e-03
  1.0023564e+00
 -8.8268670e-04
 -7.5618827e-01
  1.5855969e-01
 -1.1839676e+00
  1.1565461e+00
  7.7612042e-01
 -2.5942168e+00
 -5.4384720e-01
  7.6233315e-01
  1.2292892e+00
  7.9043907e-01
 -7.7319014e-01
 -1.6489372e+00
  5.4820621e-01
 -1.6610534e+00
 -8.5376787e-01
  6.3426453e-01
  1.1487409e+00
  2.6168995e+00
  1.0935991e+00
  1.2025044e+00
  1.1744358e-01
 -7.3829852e-02
  1.3672339e+00
 -9.5751846e-01
  1.0335512e+00
 -1.8475289e+00
 -2.8277638e+00
  2.2158284e-01
 -9.2103750e-01
 -6.9352639e-01
  3.0853158e-01
 -8.9377797e-01
  8.2865423e-01
 -4.5223263e-01
  2.0356348e-01
  5.1634148e-02
 -3.3716857e-02
  1.8086581e-03
 -4.0128693e-02
 -3.6465742e-02
 -4.8379175e-02
  4.5028102e-02
  6.2427884e-03
  1.1175282e+00
  5.4448005e-02
  1.7695959e+00
 -1.0652753e+00
 -1.2276418e-01
 -1.7142214e+00
 -1.0844477e-02
 -1.0875515e+00
 -3.5169304e-03
  1.6025927e-02
 -4.5447021e+00
 -2.6478025e-04
 -2.4990315e-02
  5.4123338e-02
  5.5466961e-02
  6.6149794e-02
  3.8639739e-01
 -8.4897451e-02
 -1.2861001e-01
  2.8176072e-01
 -4.4586714e-02
 -1.6725097e-02
 -4.9962644e-02
  9.6136372e-04
  7.2540455e-02
 -7.5378623e-03
  9.7520323e-04
  8.6103849e-02
 -5.8405963e-03
  1.2112892e-02
  3.1608030e-01
 -1.9039644e-01
  8.8119991e-02
  7.9719245e-01
  2.7565253e-03
  2.4771813e-01
 -3.8313814e-02
 -9.4991378e-02
  2.8901491e-02
  5.1739126e-01
  2.0931099e-02
 -1.5110234e-02
  1.8238721e-02
  4.1841239e-02
  1.5291836e-02
 -4.6542451e-02
 -7.1620764e-03
  3.8710382e-02
  2.2436236e-03
  5.4653120e-01
 -1.7485304e-01
  2.1226315e-02
 -1.1437046e-03
  8.4534353e-03
 -9.6687257e-02
 -7.6932907e-02
 -2.5556633e-02
 -8.9941484e-01
  3.2053702e-02
  2.7951155e-02
  2.4612650e-02
 -2.7350882e-02
 -1.3373938e-01
  6.0078003e-03
 -1.1105979e-02
 -1.5339054e-02
 -6.9391087e-02
  4.4102222e-02
 -1.7643983e-03
  9.4374996e-03
 -1.7537279e-02
  2.2338703e-03
 -1.0326592e-03
  3.0006021e-02
  1.0576948e-02
 -3.0130047e-01
  1.0729268e-02
  1.2987651e-02
 -2.3327127e-01
 -1.7619119e+00
 -2.4092525e-02
 -3.9277006e-02
 -2.6150674e-03
  9.8267151e-03
 -8.8105462e-03
  1.3992388e-02
 -5.3325199e-02
  1.6760491e-02
  1.4380985e-01
  1.8470019e-02
  1.4696875e-01
 -3.2629971e-03
 -5.1567089e-02
 -6.9144848e-03
 -1.5483448e-02
 -7.7419318e-02
 -6.0271400e-01
 -1.3763766e-01
  2.7471680e-02
  2.8589098e-03
  6.3595951e-02
  7.0245229e-02
  2.6336515e-03
  9.1287075e-03
 -6.8594969e-04
 -1.7775796e-02
 -8.5869753e-01
  8.5120581e-02
  1.3948561e+00
  7.6898414e-01
  1.2675805e-01
 -5.1423665e-02
 -4.3301302e-01
 -4.9076729e-02
 -4.5110159e-02
 -6.8055063e-02
 -2.2083733e+00
 -7.9177149e-02
  1.8157549e-02
  6.5336241e-03
 -1.0316833e-02
  3.9227023e-03
 -6.8992535e-03
  2.5012406e-02
 -1.9647794e-02
 -2.7761491e-02
  4.4337913e-01
  8.1448561e-01
 -4.2620324e-02
  1.3843783e-02
 -2.2786073e-02
 -1.5831776e-02
  4.9188272e-03
 -5.1479889e-03
  1.9042913e-02
 -1.3697295e+00
 -3.3843242e-02
  1.1289500e+00
  1.0574561e+00
 -6.7248726e-03
  3.2339494e+00
  5.1547315e-02
  1.2550641e+00
  1.9752407e-01
 -1.7307965e+00
  2.8973684e-01
 -1.3370408e+00
  5.4260116e-02
 -2.6255891e-01
  5.4545938e-03
  6.2392097e-02
 -1.9554960e-02
 -5.4723394e-01
  4.7625840e-01
  8.8608956e-01
  1.1122860e+00
  5.9652209e-01
  1.0225146e-01
  3.6192015e-01
  6.6652684e-04
 -2.6956117e-01
 -5.1644057e-01
  1.2261064e+00
  1.0130785e-01
  7.6256343e-03
  1.0272598e-02
 -4.2823707e-03
  2.2856018e-03
 -1.5113988e-02
 -2.4715094e-02
  2.2871852e-02
 -3.2127369e-02
  7.4892053e-03
 -3.7636839e-02
 -4.0352441e-02
 -3.7388965e-03
  4.2559914e-02
  1.5920429e-02
  2.7933568e-02
  5.9782732e-02
  1.3806975e-02
 -4.3602217e-02
  5.6536067e-02
  3.4986287e-02
  2.0057131e-03
 -2.1641586e-02
  3.1681016e-02
  2.8823661e-02
 -7.4264615e-05
  3.4753194e-03
  1.5249256e-02
 -1.5958427e-02
  3.6168352e-02
  5.5486307e-04
  6.9612251e-03
  2.6622635e-01
 -3.9681134e-01
  8.3739567e-01
 -6.7975521e-03
  6.7546338e-02
  1.8526953e-02
  8.9212888e-01
  4.5586238e-03
 -3.8144064e-01
  1.7990737e-01
  1.7946308e+00
  1.7289082e+00
 -7.8856194e-01
 -8.6950492e-03
  4.8177430e-01
 -8.1731647e-01
  1.3317705e+00
  2.3999237e-01
  1.3802391e+00
  9.3963698e-02
 -6.3534983e-02
  1.4295112e+00
 -1.5780696e-01
 -2.0987092e-01
  9.1616154e-01
 -1.8909323e-01
 -2.3959266e-02
  5.8452123e-01
 -5.1965944e-02
  8.5269779e-02
  2.7505425e-01
 -4.1027737e-01
 -1.4139639e-01
  6.8397112e-02
 -9.0063477e-01
  2.3097565e+00
 -2.3141167e+00
  1.1418314e+00
 -1.5147576e+00
 -1.0810786e-02
 -3.0066803e-01
 -1.0814674e+00
  2.0561035e+00
 -2.3285672e-01
  1.0097462e+00
 -8.1561857e-01
  5.1159330e-02
 -2.5522025e+00
 -5.3578496e-01
 -1.1346418e-01
 -1.9525953e-01
 -9.6998346e-01
  1.0926667e+00
 -5.8009032e-02
 -7.3413271e-03
  1.5793073e+00
  1.9030903e-02
  1.4756229e+00
  2.5788477e-01
 -6.3545637e-02
  4.6950516e-01
  6.8660009e-01
  4.3567041e-01
  3.8413620e-01
 -3.7336056e-03
 -1.2027248e-01
  7.2197449e-01
 -1.4862425e-04
 -5.0255787e-01
 -3.2291923e-02
  2.5666705e-01
 -1.4742789e-01
  1.6553366e+00
 -2.6275152e-01
 -1.0591620e-01
  4.4184580e-01
 -3.8985115e-01
  3.9609095e-01
  7.2732085e-01
  1.1168896e-02
  2.2692050e-01
  4.9019098e-01
 -2.0915787e+00
  8.4670052e-02
 -5.1344150e-01
  2.0051099e-01
  6.6140327e-03
 -1.4112969e-02
  8.6641157e-01
 -2.8418435e-02
 -1.7706629e+00
  5.2484851e-02
  4.7298847e-03
 -3.2818079e-01
 -1.3986684e+00
 -7.8442827e-02
  5.5650157e-01
 -6.5157212e-02
 -3.0588481e-01
 -3.3770695e-01
 -2.8566223e-01
 -6.7133898e-01
  9.1991377e-01
 -7.1915410e-02
 -4.8025720e-02
  1.3121054e+00
 -8.4942311e-01
 -1.1927986e+00
 -3.3108443e-01
  8.8922113e-02
  7.2295707e-01
  1.1746361e+00
  2.2971802e-03
 -1.8239279e-01
 -8.5141408e-01
  1.3965049e+00
  7.4795303e-03
  2.7960577e+00
 -1.8861867e-01
 -1.1902870e+00
 -5.7932752e-01
  2.3013076e-01
 -7.8559980e-02
  1.1709201e-01
  2.4636333e-01
  4.1510311e-01
 -1.2478780e-01
 -9.1119371e-02
 -4.0231067e-01
 -3.7593177e-01
 -1.2337989e+00
 -4.7612658e-01
  3.9120808e-01
  1.0033526e-01
 -1.5106059e+00
  1.6480714e+00
 -2.6584265e-01
 -8.8503581e-01
 -5.4693741e-01
 -1.5964679e+00
 -2.3263173e-01
  6.0254753e-01
  1.2104341e-01
  9.2178112e-01
 -8.3800405e-01
  5.5328333e-01
  2.3342447e-02
 -8.0988628e-01
  2.3549228e+00
  2.7035220e+00
  1.5777223e-02
  2.0817274e-01
  3.3378670e-01
 -4.8350391e-01
 -7.6893890e-01
  1.4297686e+00
  6.7958184e-02
 -1.2400134e-02
 -2.0504612e-02
  1.0656558e-02
 -2.2149786e-02
  1.5162748e-03
 -7.6151705e-01
 -2.0335616e-01
  4.4476543e-02
  3.1426486e-02
 -3.7736434e-02
  3.1272274e-02
 -1.4062245e-02
 -3.6867350e-02
  1.7873213e-02
  9.6738189e-01
 -5.7761741e-01
  8.9318648e-02
  2.3886526e-02
  3.4303568e-02
  2.7122211e-03
 -2.7831856e-02
 -4.4944042e-01
  2.6035970e-01
  7.4276042e-01
 -1.0590746e+00
  1.3722981e+00
  3.0321358e-02
 -8.0397165e-01
 -2.8097042e-01
  1.9714767e-01
 -5.4587214e-03
 -1.1874433e-01
 -8.8923790e-02
  2.0325739e+00
 -2.1859291e+00
 -1.1888396e+00
 -3.9253056e-01
 -5.2683044e-02
 -3.5962817e-01
 -2.0502744e+00
  4.7141337e-01
  1.5569607e+00
 -2.6632497e-01
 -1.9002365e-01
 -6.5202940e-01
 -4.3122670e-01
  1.6678587e-02
 -2.3959462e-02
  1.8607855e-01
  1.9675836e-02
  1.1682995e-02
 -7.5345568e-02
 -1.9544745e-02
  3.3808786e-01
  1.5301870e-01
 -7.6738137e-01
  2.0907693e-01
 -1.6830342e-01
  2.0151238e+00
  2.2410657e-02
 -2.5519807e+00
 -6.1231118e-01
 -9.5849013e-01
  4.9452033e-02
 -1.9548947e-02
 -3.0393498e+00
  2.7097994e-01
 -2.3652778e+00
 -3.3296892e-01
  4.0556583e+00
 -1.2613186e+00
  1.6794735e+00
 -1.5183583e+00
 -7.3398985e-02
 -6.4583451e-02
 -7.7076864e-01
  3.5010297e-02
 -1.7784074e-01
 -1.1235719e+00
 -9.2978492e-02
 -4.6889800e-01
  3.7329561e-01
  1.2570268e+00
  2.6644915e-03
 -9.3213264e-03
 -2.3018250e-02
  7.3969282e-02
 -4.9519916e-03
 -5.3654578e-02
  1.1305081e-03
 -5.5160779e-03
 -1.8620024e-02
 -6.2048547e-03
 -6.6756524e-02
 -1.7793693e-03
 -1.5412915e-03
  1.3056475e-01
  7.1352576e-03
 -2.2731252e-02
  2.7246907e-01
  3.0518044e-02
 -1.1483997e-01
  1.2162610e-02
  6.0535293e-02
 -1.0814103e-02
  1.3249503e-03
 -2.0874185e-03
 -1.0052621e-02
  1.7873591e-02
  3.1753471e-03
 -3.3168402e-03
 -1.4213518e-03
 -3.8460497e-02
  9.0255802e-03
  1.8837344e-03
 -2.6576849e-02
  2.4421209e-02
  2.4117833e-02
 -1.5191833e-02
 -4.6238843e-03
  1.0874901e-03
 -2.1216309e-02
  3.5633449e-02
 -9.4813891e-03
 -5.1349722e-02
 -2.7660711e-02
  6.2245924e-02
  6.1857225e-03
 -9.8565957e-03
 -4.1574100e-03
 -1.2331281e-02
  6.9591224e-02
 -9.6135335e-03
  2.0439530e-02
 -6.7898962e-03
 -1.0213158e-02
  1.1161839e-02
  5.2321545e-04
 -3.2499228e-02
 -2.8473819e-02
 -6.0581821e-03
 -5.0019220e-02
 -7.2608865e-03
  2.5749939e-02
 -9.1820681e-01
 -9.5785570e-01
 -1.2740280e-02
  5.5012894e-01
 -3.4857701e-04
 -1.9910298e-02
  3.0559894e-02
  4.4766407e-02
 -1.7310858e-02
  5.7202775e-02
  4.2633396e-02
 -1.4924921e-01
 -1.6843842e-01
 -1.2795877e-03
  8.4314384e-02
 -1.3848035e-02
 -8.7774191e-03
 -1.4374191e-01
 -3.8576692e-02
 -1.3273357e-01
 -4.3281585e-01
  1.5259844e-01
 -5.4837335e-02
  2.4793504e-02
  4.2991983e-03
 -4.0661274e-03
  1.3491218e-01
  5.8488168e-02
  4.2129811e-02
 -3.6999285e-01
  1.0845434e-02
 -1.9200150e-02
 -2.6682192e-01
 -7.2487414e-01
 -1.2780277e+00
  5.3712957e-02
 -2.9778138e-01
 -1.6446657e-01
  7.3357038e-02
 -2.2734705e-01
  2.1857312e+00
  1.1551560e+00
  6.6022146e-01
  1.1961234e-02
  5.6958920e-01
 -7.5171292e-01
 -3.1791219e-01
 -4.5866463e-02
  7.4135371e-02
  1.0719683e+00
  3.2430461e-01
 -5.9540640e-03
  1.2497497e+00
 -4.1220407e-03
 -8.0421394e-01
 -1.3114874e-01
 -4.3053823e-03
  4.2973544e-02
 -4.5884247e-03
 -1.0466045e+00
 -5.1064366e-01
 -1.5629694e+00
  2.4368894e+00
  2.0590383e-01
  4.9854827e-01
  9.8607749e-01
 -1.1299651e-01
 -1.5085322e+00
 -5.1209790e-01
  2.9041207e+00
 -3.7532765e-01
 -4.8304196e-03
 -1.4077170e+00
 -7.2767516e-04
  9.4162166e-02
 -6.6915613e-01
  4.2118147e-02
  6.4181280e-01
 -3.9288014e-01
  6.9107121e-01
  3.6150539e-01
  4.3904614e-01
 -4.9161226e-01
 -2.0225152e-01
  1.0085228e-01
 -4.7897514e-02
 -2.3684118e-02
  6.7448336e-01
 -5.2953190e-01
 -3.7100308e-02
  1.0038521e-03
 -5.5813892e-03
 -2.7197944e-03
  4.5142826e-03
  4.4102758e-02
 -7.8617334e-03
 -2.9539842e-02
 -5.3025655e-02
 -9.1711497e-03
  5.9960034e-02
 -2.1295955e-02
 -5.6292485e-02
  2.4904018e-02
  1.5628115e+00
 -1.0079924e-01
  2.9595852e-02
  1.9690143e-02
 -8.3149500e-02
  1.2744009e-02
 -1.0258237e-02
 -2.0991290e-02
  9.8214373e-02
 -6.2648125e-02
  4.7929700e-02
 -1.0073148e-02
 -2.6936268e-02
 -7.1718828e-03
 -3.2524064e-02
 -1.1340754e-01
  3.9382547e-01
  1.2551006e+00
 -2.3859595e-01
  1.2351542e+00
  4.7234625e-01
  1.9819348e+00
  5.5031610e-01
 -7.4309736e-02
 -1.4075543e+00
  6.9599971e-02
 -1.3281140e+00
  2.2094390e+00
  2.7282414e-01
  1.4708898e+00
 -1.5181455e-02
  1.1551040e+00
  6.2524468e-01
 -2.1805084e+00
  1.4399425e+00
 -7.1292615e-01
 -1.0826172e+00
 -1.0479138e+00
 -1.8507691e-01
 -6.3344884e-01
 -3.4395626e-03
 -2.2347708e+00
 -9.4886236e-03
  3.7323356e-02
  1.2038083e+00
 -1.4318082e+00
  4.5808662e-02
  3.3037972e-02
 -4.2697936e-01
  3.5716346e-01
  1.6458527e+00
 -3.1547055e-01
  3.1801901e-04
  1.6351724e-02
 -4.7053441e-01
  1.0072762e-02
 -2.7893635e-02
 -2.1383606e-02
  1.5918685e-03
  2.1439035e-01
  7.3406529e-03
  9.4077043e-02
 -3.2589089e-03
  1.2931081e-02
 -5.4215723e-01
 -1.2609312e-02
  1.3041171e-01
 -2.8718617e-02
 -6.9848724e-02
 -4.9234873e-01
 -6.7463415e-03
  2.0603556e-02
 -2.2600751e-02
 -1.3947205e-01
  1.8529104e-02
 -6.7387223e-02
 -2.7622106e+00
  2.5623533e-01
 -4.2432499e-01
 -8.2391478e-02
  7.0655830e-02
  2.0325138e-01
  7.0722849e-04
 -3.1192806e-01
  4.3833934e-02
  4.1208420e-02
 -4.9531505e-01
  2.2223247e-02
 -7.4144542e-01
  1.7233551e-02
 -2.7513525e-01
  8.4716815e-01
  7.6758503e-03
 -9.1923485e-03
 -5.9705746e-01
 -1.8043106e-02
  5.4747516e-01
 -1.0191176e+00
 -2.6220760e-01
 -3.3011684e-01
 -3.1221953e-01
 -2.0626031e-01
  6.0695786e-02
  1.1938844e-02
  3.0145967e-01
  4.7478374e-02
  9.3631735e-03
 -3.8836636e-03
  1.8273796e-03
 -4.2132586e-02
 -7.3013422e-03
 -1.1499396e-02
  7.5693995e-02
  3.5208398e-03
  1.6207274e-03
 -1.0773387e-01
 -1.0394304e-02
 -4.6920022e-03
  1.2483055e-02
  1.4923071e-02
 -4.1629180e-02
 -2.4132242e-02
 -2.8618118e-02
  3.1789560e-02
 -4.4430915e-01
 -5.7450360e-01
 -5.9563080e-03
  2.5104236e-02
  9.0275034e-03
  5.0423350e-03
 -2.9100742e-02
 -3.2446504e-02
  1.9311098e-02
  2.5773080e-02
  3.4763587e-03
 -1.7398303e-02
 -8.6224878e-01
 -7.5517736e-02
 -1.0985851e+00
 -3.6724511e-01
 -3.8446210e-02
 -1.7979701e-01
 -5.1483697e-01
  3.3109275e-01
 -4.1460460e-01
  7.1209641e-03
  6.3278562e-01
  3.8580689e-01
  8.7584007e-01
  1.9028397e+00
  2.6363845e-03
  2.2315501e-01
 -1.0346559e-01
  1.4288414e-01
  5.3456175e-01
 -1.1281178e-02
 -1.3764378e-01
  1.6984080e-01
 -6.1978330e-03
 -8.4026575e-01
  1.8667822e-01
  2.6937020e+00
 -9.2979401e-02
  3.5532009e-02
  2.2463197e-01
 -1.7218901e-02
 -1.4882995e+00
 -2.4307357e-01
 -1.7569737e+00
  4.9116668e-01
  4.1283507e-02
  1.6604902e-01
 -5.5339193e-01
  1.7052996e-03
  3.8047504e-01
  4.1811258e-02
  2.0943455e-01
  1.2052326e-01
 -6.8071678e-02
  1.1995867e-01
  2.5694011e-02
  4.3833447e-01
 -8.6206257e-02
 -9.9814123e-01
 -7.2184554e-04
  9.5222048e-02
  1.3566202e+00
 -8.7142873e-01
 -8.9255595e-01
  5.2021688e-01
  2.9415041e-03
 -1.3216270e-02
  2.9622033e-01
 -1.8721161e-02
  5.3791237e-01
 -3.1193804e-02
  6.5026122e-01
  2.0026486e-01
  2.8201720e-01
 -8.1705034e-01
 -9.4939369e-01
 -2.4611063e+00
  1.0781857e+00
  1.8283530e+00
  1.8781821e-01
  1.0461828e+00
 -3.8545841e-01
  2.1532910e+00
 -2.4260390e+00
 -1.9007992e+00
  1.1296606e+00
  6.4266837e-01
 -9.2798132e-01
 -4.0736368e-01
  5.1944536e-01
  1.5506039e+00
 -1.0147369e+00
  1.1955643e+00
 -1.6541491e-01
 -3.5728884e-01
  1.9544216e+00
 -3.4351844e-02
 -1.2766714e-01
  8.9752024e-01
  1.8566512e+00
  7.7745900e-02
  4.9466947e-01
  4.2589870e-01
 -2.8672981e-01
  2.0462011e-01
 -1.2604931e-02
  6.4233087e-02
 -5.9690195e-01
  5.9171561e-02
  1.9561231e-01
  4.4392157e-01
 -1.8906219e-01
  2.4883422e-01
  7.0889451e-02
 -6.9433376e-02
 -1.7656288e-03
  3.4465316e-01
  6.3957947e-01
 -7.5651659e-03
  1.2986980e-01
  2.1512924e-01
 -2.8916395e-01
  3.3421034e-01
  5.1480290e-02
  2.2632842e-01
  1.3905733e-02
  2.9925566e-02
 -1.8158308e-01
 -1.8012263e-02
 -7.5823981e-01
  2.6006760e-02
  1.3239801e-01
 -4.8160306e-03
 -1.6863969e-01
 -1.7140926e-01
 -1.9885454e-01
 -2.2799175e-03
 -6.8939235e-03
 -3.0275604e-01
 -4.7300602e-03
  1.1244531e-02
 -1.2350541e-02
 -4.0754400e-02
 -6.7688406e-02
 -4.4214590e-03
 -4.8800446e-02
 -3.6334000e-03
  2.5496131e-02
 -5.8378350e-02
 -6.4022309e-04
  2.6672846e-02
  1.2970419e+00
  3.5279214e-03
  1.9284712e-01
 -6.0944170e-02
 -1.6527589e-01
 -6.0553782e-02
 -3.2472278e-03
 -2.8335202e-02
  3.5447694e-02
  2.2398305e-01
  9.0690511e-01
 -9.6632451e-02
 -5.9283197e-01
 -5.2795527e-03
 -1.8420671e-01
  1.8646705e+00
  1.6767979e+00
  2.9960173e-01
  1.0329026e+00
 -2.0420151e+00
  2.6728036e+00
  6.3659340e-02
 -1.7033956e+00
  1.0912255e+00
 -8.2359093e-01
 -5.7011533e-01
  1.9810640e+00
 -1.7001860e+00
  1.6361973e+00
 -9.7849822e-01
 -4.9913669e-01
  1.1436274e+00
 -1.4580894e-01
  1.3969804e-01
  1.2812780e-01
 -4.2982082e+00
 -3.5251005e+00
  3.0543721e-01
  9.8357725e-01
 -5.2037752e-01
 -1.6909033e-01
  1.1760052e+00
 -1.9850221e+00
 -4.8083541e-01
 -9.6559221e-01
 -5.6461006e-01
 -7.1251236e-02
 -2.3985574e-02
 -3.2587093e-01
 -2.3291964e-02
  3.7923276e-01
 -2.3066312e-01
  6.5287924e-01
 -3.4816198e-02
 -9.8321766e-02
  1.0602669e-01
  5.9266160e-03
 -3.5131553e-01
  1.4365395e+00
 -2.6845127e-01
  2.7072126e-01
 -1.0035315e-01
  2.1228113e+00
  2.3613957e-01
 -6.3578165e-01
  1.2855777e+00
  2.7890825e-01
 -8.9185275e-03
  7.6947458e-02
  2.4865998e-02
  4.9568766e-01
  4.3491811e-01
 -4.0715829e-01
 -8.4378731e-01
 -6.1178401e-02
 -3.4064077e-02
 -3.4406766e-01
  1.0015009e-01
 -1.1090355e-01
  4.9755624e-01
  6.7379189e-01
  5.3020097e-02
 -1.7097638e-03
 -1.0643120e+00
  2.9174432e-02
 -2.1319473e-01
  2.4181668e-01
  2.8240008e+00
 -3.0443963e-04
  1.0335918e-01
  2.6795622e-02
 -3.6450163e-02
  3.5802943e-01
 -3.7002712e-01
  2.7538023e-03
  1.8873602e-01
 -6.4401656e-02
 -5.9451334e-02
 -1.1849064e-01
 -1.4307278e-01
  1.6941673e+00
 -1.7189482e-01
  2.0551186e+00
 -7.8119236e-01
  1.2304122e-01
 -1.1593406e+00
 -2.6781303e-01
 -1.0315398e+00
 -1.4324095e+00
 -2.1838659e-01
  9.9634957e-01
 -8.2993969e-02
  3.6547575e-03
  1.9843867e-01
 -1.6733144e-01
  1.4089912e+00
  9.8603523e-01
  2.2586700e-01
  4.8336679e-01
 -1.0467273e-01
  1.3775220e+00
 -9.7220105e-01
  2.2334768e-01
  4.2751628e-01
 -7.6574162e-03
 -6.8138498e-01
  6.1729636e-02
 -1.7597948e-01
  1.3400141e+00
 -4.0014815e-03
  1.9089438e+00
 -3.2272068e-01
  1.5460460e+00
  1.3830966e+00
 -1.2955028e+00
  9.4605297e-01
 -1.9107461e-01
 -2.9609692e-01
 -2.0160851e+00
 -1.8726598e-01
 -2.7749184e-01
 -2.1378472e-02
 -4.4210383e-01
 -9.8222989e-01
 -2.0062202e-01
 -2.4556817e-01
  5.5119228e-01
  1.6884428e-01
 -6.3855600e-01
  8.6268689e-03
  1.1637863e+00
 -2.7205408e-01
 -8.7892640e-01
 -2.1199982e-01
 -6.1775190e-03
 -6.1659968e-01
  1.5774589e-02
 -4.1573398e-02
  6.1791050e-03
  2.8491177e-02
 -1.3630657e+00
 -3.0059817e-01
  9.8171008e-01
 -1.4966093e-01
  1.5132658e-01
 -1.1942636e+00
 -9.5960766e-02
  2.4942862e-04
  2.8771564e-01
 -2.2736540e-02
  1.0223105e+00
 -1.8039081e-02
 -1.9843752e-02
  4.4125363e-01
  4.5700362e-03
  9.2571564e-02
  1.5452722e+00
  6.3569134e-01
  3.3843842e-01
 -8.4292613e-02
  6.7942244e-01
 -4.4590136e-01
  9.6356757e-03
  7.1244210e-01
 -7.0598708e-03
  7.7259198e-02
  5.5798680e-02
  1.1555711e-02
  1.5171501e-01
 -9.4799586e-02
  6.0185856e-01
  3.3067548e-01
  4.9909884e-01
  4.9106643e-01
 -5.5532360e-01
 -3.5751824e+00
 -1.1890311e+00
  9.3950993e-01
 -2.5570371e+00
  2.4182444e+00
 -2.0711930e+00
  1.1404120e+00
  1.3870904e+00
 -1.7909476e-01
  2.9023378e+00
  5.1749206e-01
  5.1607504e-02
  1.1559224e+00
 -1.5581037e-01
  1.5265065e+00
  1.1005311e-01
 -9.8312044e-01
  2.1591997e-01
  4.1278803e-01
  2.0326316e+00
 -1.8733163e+00
  3.8116547e-01
 -4.7380149e-02
 -5.8749032e-01
  2.5852250e-02
  5.9400830e-02
 -4.1330859e-01
 -1.2957789e+00
  1.8932556e+00
 -1.5260026e-01
  1.6542602e+00
 -4.3710366e-01
 -4.6597313e-02
 -3.3628955e-01
  1.6008660e-02
  5.0043478e-03
 -9.2586048e-02
  3.5908118e-02
 -3.8646850e-01
  3.1579223e-02
 -1.5023263e+00
  9.1596738e-02
 -3.4964763e-02
  4.5525944e-01
 -6.1655706e-01
  5.7739311e-01
 -5.5609763e-02
 -5.5208798e-02
 -4.1802678e-01
 -2.8182434e-02
 -7.6300450e-02
  5.5848113e-03
 -1.2998500e-02
  2.0098617e-02
  3.3791024e-02
  2.8819220e+00
 -2.5227007e-01
 -5.1604223e-01
  1.5243761e-01
 -4.2715886e-01
 -2.8670809e+00
 -4.0614325e-01
  1.2984737e+00
  1.1804290e+00
  1.0277377e+00
 -4.2569599e-01
  6.8447599e-03
  5.5119920e-01
 -7.1511996e-01
  4.4623560e-01
 -1.6363867e-01
  3.5326275e-01
  1.5355933e-01
  4.5244411e-01
  1.5860020e-01
  1.3735212e+00
  4.4767502e-01
 -8.1761605e-01
 -1.1940531e-01
  8.8058853e-01
  1.6711949e+00
 -1.6469227e-02
  2.5033941e-03
  7.8980260e-02
  3.5446233e-03
  9.7244568e-03
 -1.9550435e-02
  2.6417714e-02
  1.9630671e+00
  1.7596936e-02
  3.4178109e-03
  1.8313868e-04
 -6.0282979e-02
 -6.7235120e-03
 -4.2611430e-03
  3.3625569e-03
 -2.5712818e-01
  1.2484265e-02
 -3.6241274e-02
 -4.0116906e-03
  6.0654553e-03
  1.4591588e-02
 -1.6192215e-02
 -1.9924331e-02
 -4.3921191e-02
 -9.7454023e-01
  2.0135151e-02
 -2.6588466e-02
 -1.9715209e-02
 -3.3798581e-03
  1.5333547e-02
 -7.7396806e-04
 -1.0031882e-02
  1.1011930e-03
  3.3390408e-03
  1.2240140e+00
  1.9351902e+00
 -2.4247124e+00
 -8.7678367e-01
 -2.4898565e+00
  1.8127966e+00
 -9.8356746e-02
  1.3868642e-02
  1.4428310e+00
 -3.4761381e-01
  8.9499605e-01
  1.7492611e-02
 -5.8071851e-03
  5.1252168e-01
  2.7236637e-02
  2.3225605e-01
 -7.2523171e-01
  5.4562121e-04
 -2.8406188e+00
 -4.3383386e-02
  1.9384872e+00
 -1.1812155e+00
  2.4146625e-01
 -1.0042068e+00
 -1.0615616e-01
 -9.2256343e-01
  2.7241239e-02
  1.1885727e-02
 -1.1564075e+00
 -9.9462681e-03
  1.8682081e+00
  4.6637151e-01
 -2.2609040e-01
  1.1933973e+00
 -1.4542698e+00
  9.1244221e-01
 -3.1338952e+00
 -1.9820485e+00
  4.2034000e-01
 -1.4246076e+00
  2.1885728e-02
  1.9666897e-01
 -2.3922606e+00
  1.8800594e+00
 -1.9048060e-01
 -6.8976945e-01
 -2.0244117e+00
 -2.2070498e+00
  9.4641030e-01
 -7.1108388e-03
 -1.3612092e+00
  1.2955636e+00
  5.9992242e-01
 -5.5761552e-01
  4.4830446e-03
 -3.1601537e-02
  4.2741902e-02
 -3.9235610e-01
  9.0417758e-02
 -1.7796710e-02
 -1.3763865e+00
  8.4984881e-01
 -4.0764812e-01
  9.8769832e-03
  1.5983027e+00
 -5.8650786e-01
 -1.2554673e+00
 -1.3802196e+00
 -1.5552508e+00
  1.6473892e+00
  9.7761311e-02
 -7.2485149e-02
 -1.4998140e-03
  4.5371596e-02
 -1.1992323e-01
 -1.1667988e+00
  1.6322298e+00
  4.9277383e-01
  1.4105130e+00
 -1.0510315e+00
 -5.5780691e-01
  7.0882869e-01
  1.1233546e+00
 -4.4204399e-01
  3.8168445e-01
 -2.2897768e-01
  3.3052903e-01
 -2.5692172e-03
 -1.5720791e+00
 -3.0173537e-01
 -1.0009338e+00
 -1.1814325e+00
 -2.1510823e+00
  3.1924909e-03
 -2.2515068e-02
 -2.0921190e-01
  5.4309392e-01
 -1.4393921e+00
  4.0478393e-02
  5.1034635e-01
 -2.0592730e-01
 -9.1640574e-01
 -5.6848563e-02
  5.4598141e-01
 -3.8885546e-01
  9.2692536e-01
  7.8910369e-01
  9.5682114e-02
 -2.4082661e+00
 -4.6078116e-01
  3.0685088e-01
 -7.8494030e-01
 -2.4928196e-01
 -3.1563446e-01
  1.0347583e+00
  1.8571618e-01
  3.2108980e-01
  4.1939472e-03
 -1.4421146e+00
 -1.5450901e+00
 -7.4311887e-04
  3.1086996e-02
 -2.5764890e-02
 -1.6618650e-02
  2.2165228e-01
 -1.7530256e-03
  2.8699486e-02
 -7.7008908e-03
  3.0482233e-02
  6.0229696e-04
  1.2761179e-03
  5.9895437e-02
 -4.2672936e-02
 -1.7236721e-02
 -2.8577151e-02
 -6.1580356e-02
  2.7855616e-03
 -3.1092055e-02
 -1.0076589e-02
  5.7516914e-02
  6.3122049e-02
  5.2785624e-02
 -1.0016763e-02
 -1.7991006e-02
  1.8805996e-02
  2.6804686e-02
 -7.4933874e-03
 -1.0224057e-01
 -7.1791746e-02
  1.4644599e-02
 -3.6937878e-02
  7.1337717e-03
 -1.4317787e-01
  5.4302081e-02
  9.5342152e-02
 -6.7928314e-02
  9.9785184e-06
 -3.7991427e-02
  2.1661418e-02
  1.3063686e-01
  2.6177175e-02
  1.8926639e-02
 -7.6362588e-02
  1.5463019e-03
  6.5797684e-03
 -7.2645694e-03
  1.2484964e-02
  2.8829983e-02
  4.3985691e-02
  2.8800381e-02
  1.7488472e-02
  1.4058180e-03
 -2.2224862e-02
 -6.2800057e-02
 -1.3265089e-02
 -2.2733271e-02
 -1.0197545e-02
  1.6972994e-02
  3.1933472e-02
  2.0244079e-02
 -4.2011911e-01
 -3.6932272e-01
 -3.9292642e-01
 -1.3424095e+00
  9.4857097e-01
  1.9130085e-01
  2.3550015e-02
 -9.4032623e-02
  1.7955651e+00
 -8.8332416e-03
 -9.8209381e-02
  5.7891246e-02
  9.0989387e-01
  8.1912947e-01
 -7.9987403e-03
  1.0132577e+00
 -1.1418037e+00
  1.5129336e+00
 -2.9186749e-01
  6.1623305e-03
 -3.9541849e-01
 -1.3775615e+00
 -1.3245112e+00
 -1.3091767e-01
 -2.1906564e-01
  6.4255539e-03
  7.4226834e-02
  2.0324760e-03
 -1.8938524e-01
 -9.4976434e-03
  1.5723407e+00
 -3.4467065e-01
  8.9869612e-01
 -1.3340337e+00
  1.4392060e+00
 -8.7217200e-01
  7.4972421e-01
 -2.9722515e-01
 -1.0923029e+00
 -2.4654180e-01
 -9.5589876e-01
 -7.7544475e-01
  2.8355396e-01
 -9.3728766e-02
  1.8245248e-02
 -1.1158475e+00
  5.3256694e-03
  5.5645722e-01
 -4.9651420e-01
 -1.1279146e-02
  1.3691506e-01
  7.8101283e-01
  3.1574998e-02
 -4.4909659e-01
  5.2838165e-01
  2.5986360e-02
  1.1271609e-02
  1.1273655e-01
 -6.7759670e-02
  1.6503314e-02
  3.7092239e-01
 -2.3293115e-01
  3.3957475e-01
 -9.7511457e-03
  1.5038055e-01
 -3.3057535e-01
 -2.0480111e-01
 -7.6317587e-03
 -1.6040348e-02
 -1.4113280e-02
  6.8589896e-02
  7.4638531e-02
  1.5366430e-02
  2.0269232e-02
  3.8914774e-02
 -9.6366405e-02
  9.8614777e-03
 -3.6370546e-02
  2.5856626e-01
  8.0209553e-02
  2.9883507e-01
 -1.5960145e-01
 -3.2981774e-01
  6.6421241e-02
 -1.9883189e-01
  4.6237935e-03
 -1.5457632e-02
 -2.4182377e-02
 -7.3578365e-02
 -1.2997967e-02
 -1.4074462e-03
  2.0492520e-02
 -4.3297607e-02
  1.7161657e-03
 -9.9604111e-03
 -1.2690898e-02
  4.0034860e-02
  1.3252448e-01
  3.6889908e-01
 -1.5658563e-02
  1.9680671e-02
 -2.4306659e-02
  2.6510300e-02
 -1.0781276e-02
  5.5000638e-03
 -1.0925940e-01
 -8.0673900e-03
 -4.1953374e-02
 -2.2680653e-02
 -4.2538546e-02
 -6.0240277e-03
 -3.6973331e-02
 -6.6106911e-03
  1.0287150e-01
 -7.2583654e-03
 -6.2741846e-02
 -3.0737964e-03
 -4.7166471e-04
 -1.0449845e-01
 -1.8997792e-02
 -5.7778295e-02
  5.1655088e-02
  1.2368256e-02
  2.5932236e-02
  6.3359141e-02
  2.9823760e-02
  3.5791095e-02
  2.6704054e-02
 -4.0275734e-02
  6.7515224e-02
  2.0919977e-02
  1.4615823e-03
 -7.4338989e-04
 -2.3284346e-02
  1.5921679e-01
 -1.1037029e-02
 -4.6002441e-03
  5.9089386e-03
  1.5627880e-02
 -1.1640745e-01
  8.5400097e-02
  1.0232668e+00
 -5.6150932e-02
 -3.8012188e-02
 -7.1583509e-02
  8.1512460e-04
  1.3975746e-02
  2.5416905e-02
  1.9754110e-02
  1.7687578e-02
  4.9918690e-03
 -1.0656048e-01
 -5.0770650e-03
  1.8742317e-02
 -2.0042884e-01
  6.3437176e-01
 -9.0983910e-03
 -3.3715785e-02
 -1.7597760e-01
  5.0484631e-03
 -2.0725237e-02
  1.2503900e-01
 -9.8032337e-03
  9.4008274e-02
  1.2912126e-01
 -1.1752607e-02
  1.0892719e-02
  3.3631042e-02
  7.7142477e-02
 -3.0856356e-03
  4.6197465e-03
  1.5140050e-02
  2.9188743e-02
  9.1547452e-02
 -8.0488259e-03
  1.5851317e-02
 -3.6971346e-02
 -5.6342132e-02
 -1.4637952e-02
  1.3038035e-02
  3.8445517e-02
  1.5534064e-01
 -1.6055705e-02
  5.6379188e-02
  5.8590494e-02
  3.6176715e-02
  4.1875201e-03
 -2.4857244e-03
  8.0351746e-03
 -3.6091797e-02
  3.2032534e-02
 -6.0014622e-03
  2.1834794e-02
  3.2550525e-03
  2.0854568e-02
  1.2922853e-02
  3.0751526e-03
 -5.5227585e-02
 -3.3646756e-01
 -5.2420883e-03
  1.7295623e-03
  1.0450743e-01
  2.3975128e-02
 -8.5805690e-01
  5.0031715e-03
  5.2682739e-02
 -1.0870742e-02
  3.0910822e-02
 -4.6635021e-02
 -4.2685032e-02
 -1.5142202e-01
 -1.4357328e-01
 -1.0346725e+00
  6.7310375e-01
  7.3569226e-03
 -5.9444702e-01
 -4.0359446e-01
 -1.3741846e+00
 -8.7047712e-04
  2.5499087e-02
 -1.4489669e+00
  2.9006341e-02
  6.2386173e-01
  8.1832446e-02
  6.7492768e-02
 -5.4093546e-01
 -4.1388012e-02
  9.5405865e-01
  1.1089010e+00
  1.3524109e-01
 -3.7857920e-01
 -5.4510897e-01
  2.5437319e-01
 -1.8057422e-01
  4.2014420e-01
 -4.3550453e-01
  1.0649108e-01
  4.0577579e-04
 -1.5144594e-01
  2.7108844e-02
 -6.2889767e-01
 -6.6715747e-01
  2.2443434e-02
 -4.2800242e-01
  1.7106067e-01
  3.9642546e-01
 -9.9610436e-01
 -4.3834144e-01
 -1.5860378e+00
 -2.6844719e-01
 -1.2029556e+00
  3.7508596e-02
 -5.4147743e-02
 -7.4139935e-01
 -9.8975033e-01
 -7.4994451e-01
 -5.5970967e-01
  4.1856474e-01
 -6.7683226e-01
 -4.0710151e-02
 -3.0415234e-01
 -3.2927743e-01
  2.9177573e-01
 -1.4738714e+00
 -1.8021847e-01
 -4.1280296e-02
  1.8171366e-01
  1.2445368e+00
 -3.2402390e-01
  4.2461880e-02
  1.5601704e-02
  1.6091505e-02
  7.1414605e-02
  1.0616209e-01
 -4.2166550e-02
 -2.1460643e-03
  2.3773128e-02
  1.6922313e-01
  4.2542223e-02
 -2.3616765e-02
  6.1073691e-02
  2.3436816e-01
 -3.4975797e-02
 -1.4586395e-02
 -8.9989684e-04
  7.7973187e-02
  2.2091879e-02
 -1.2448733e-03
 -4.9475008e-03
 -3.3605499e-03
  6.9157109e-02
  3.0271620e-01
  6.5175481e-02
  2.5544733e-02
  8.4446212e-03
 -1.0331879e-01
  5.8174145e-01
 -9.5592104e-03
 -7.4718602e-02
  7.1177475e-02
 -3.2059363e-01
  3.4068954e-01
 -2.0361236e-01
 -4.8869210e-01
 -1.1867305e+00
  5.7151425e-03
 -2.3038283e-02
  5.5493925e-02
 -8.6985290e-02
  5.5345725e-03
 -2.5515768e-01
  5.4703679e-02
 -7.6249935e-02
 -6.9490367e-01
 -2.2737538e-02
  3.1151157e-02
  2.3183836e-01
 -7.8107230e-02
 -1.3329596e-02
 -5.4909747e-02
  2.1647349e-02
  2.3276435e-01
  1.1356799e-01
  3.4518647e-01
  6.3936144e-01
  1.9956415e-03
 -5.4953862e-02
 -1.1528025e-02
 -1.2465263e-02
 -5.3512916e-02
 -1.8469095e-02
  8.8426374e-02
 -2.2820036e-01
 -3.8478547e-03
  1.3076229e-01
  1.1115022e-02
 -1.6586795e-02
  1.3248079e-01
 -7.5604320e-03
 -1.2493527e-02
  2.2584763e-03
 -1.0825128e-01
 -5.7849228e-02
 -6.4644665e-02
  1.7012943e-02
  1.2818021e-02
 -3.0859618e-03
  1.2991288e-02
 -9.8239459e-02
 -3.2010932e-02
  5.1524937e-03
 -1.3744212e-02
 -5.9138739e-01
 -1.5935328e-02
 -9.1343075e-02
  6.9053739e-02
 -3.5967097e-02
  1.7566161e-02
 -1.0959975e-01
 -4.9622554e-02
  2.5089301e-02
  2.5163325e-02
 -4.4070460e-02
  3.0301256e-02
  1.9791557e-03
  1.3835324e-02
  1.8395518e+00
 -1.4166813e-03
  3.1647850e-02
 -1.6331632e-02
  4.3722305e-02
  7.5818426e-03
 -7.1436545e-04
 -3.2480516e-02
  1.2910239e-03
  4.8519965e-04
  5.0890509e-02
  3.9610546e-03
 -1.8554432e-02
  2.2810332e-02
  2.7025526e-02
 -6.3074487e-01
  1.2345401e-02
 -1.2420852e-02
 -1.7943880e-02
 -4.6108041e-02
  6.8066925e-02
  7.2849832e-02
 -8.5908342e-03
 -3.1957507e-02
  2.8900829e-01
  5.8080882e-01
  7.9304409e-01
 -1.2196792e+00
 -9.8707043e-03
 -1.8780651e+00
  8.4519053e-01
 -7.9332784e-02
  1.0356728e+00
  5.8969653e-01
  5.2302253e-02
  1.3148913e+00
 -1.1252597e-01
  1.6130826e+00
  5.1489097e-01
 -3.0274051e-01
  1.6261430e+00
 -3.9389542e-01
 -3.5135411e-02
  3.3562192e-01
 -3.3986777e-01
  1.4258116e+00
 -2.7023074e-01
 -7.6128566e-01
  1.5600506e+00
  6.6079265e-03
  1.8447700e-01
 -8.8264085e-02
  1.4679567e+00
 -6.2911315e-03
 -1.9199143e-01
 -1.7802796e-01
 -2.7238619e-01
  2.7066913e-01
 -1.5984854e+00
  1.2418247e+00
  3.2338649e-01
 -2.6542687e-01
 -8.2459229e-01
  2.6534386e-02
  2.9160154e-01
  4.5990664e-01
 -5.4737240e-02
 -1.5748252e+00
 -7.0124947e-02
 -3.5780530e-02
  1.0125725e-01
 -2.2130048e-02
  1.1837293e+00
 -7.9995328e-01
  9.1396458e-02
  4.8466668e-01
 -1.8159461e-01
  1.6345984e+00
  4.2735275e-02
 -1.7433455e-03
  2.7655941e-02
 -1.1820908e-01
 -6.9145554e-01
 -6.3468656e-03
  1.1227303e+00
  3.3281788e-01
  9.7028863e-01
  5.3870869e-01
 -1.6039751e-02
  1.0701840e+00
  1.0132180e-03
  6.6392416e-01
  1.7124356e+00
 -1.3146837e+00
  6.5280950e-01
  3.4454146e-01
  6.3392836e-01
 -1.1561259e+00
 -7.4148037e-02
  6.8199015e-01
  1.5870976e-01
  2.2072975e-01
 -1.5618857e+00
  2.3525333e+00
  1.7936300e-01
  1.0514455e-01
 -3.1156221e-01
 -7.2396815e-02
  8.2641125e-01
 -6.5222536e-03
 -1.4936727e-02
 -9.8293558e-02
  2.6468313e-01
  1.7653467e-01
  6.1488081e-02
 -6.1991427e-02
 -7.1750000e-02
  9.0697370e-02
 -6.5576208e-01
 -1.0299876e-02
 -2.6296802e-02
 -3.0461900e-02
 -1.1501466e-01
  3.9306157e-03
  9.8515712e-02
 -5.3710091e-01
 -4.4424735e-02
 -5.4082102e-01
 -9.4200499e-02
 -3.6120467e-02
 -2.8061586e-02
  1.1645296e-02
  1.0979606e-02
 -5.0761048e-02
  1.1589829e-02
  3.8351298e-03
  1.7759703e-01
  9.9704511e-02
 -1.1683154e-02
 -1.6288346e-02
 -4.7590222e-02
  3.5350993e-03
 -7.1862161e-02
 -1.0262749e-02
  1.0626231e-01
  1.3604143e-01
 -3.1775686e-01
 -1.1698470e-03
 -7.5313759e-01
 -1.2491053e-03
  1.9015664e-02
 -4.5871243e-02
 -3.3632599e-02
  7.3758834e-03
  7.9943396e-02
 -4.1173798e-01
 -2.4215509e-03
 -7.7595755e-02
 -7.2602384e-02
 -2.7676903e-02
  3.6507298e-04
  1.4532669e-01
  7.3142941e-03
  2.3745356e-02
 -1.0179643e-02
  1.4674765e-02
 -1.5946933e-03
  2.3500691e-01
 -2.1976214e-02
  3.6550697e-03
 -1.7810103e-01
  1.0987949e-01
 -1.4341448e-04
 -9.1494864e-01
  1.9064926e-03
 -4.1375843e-01
  1.6824771e-01
  2.5745070e-01
 -4.5735609e-02
 -4.5038932e-03
 -7.5520411e-02
 -3.6194313e-02
 -3.3156969e-02
  1.2783221e-02
 -1.9195344e-02
  1.1336981e-01
  4.6646039e-04
  3.6889546e-02
  2.0035243e-02
  1.3100538e-01
 -6.8113734e-03
 -4.2106137e-02
  3.2843076e-02
 -7.4139581e-04
 -8.5879102e-02
 -7.1375594e-02
 -3.6861184e-03
 -1.7028214e-01
  5.8760982e-02
  1.5341226e-02
  5.1552672e-02
 -2.4952488e-03
  2.1636561e-02
 -1.8550538e-02
 -1.8966870e-02
  8.9213669e-02
  5.9877958e-02
  3.4034862e-03
  1.8279946e-01
  3.2122362e-02
  1.0824066e-02
  1.2594170e-02
  7.4473894e-03
  5.4431338e-02
 -2.1099057e-02
  2.0929403e-04
  3.0314550e-03
 -9.6992284e-02
 -4.1739795e-01
 -3.5492885e-01
  7.9284003e-03
  2.1199204e-02
  1.6151290e-02
 -8.1650645e-02
  1.3063155e-02
  6.6504213e-03
  7.1240574e-02
 -9.5843434e-01
 -1.9128565e-02
  3.9853610e-02
 -1.0571198e-02
 -3.0764369e-03
  3.9152998e-02
  4.8551642e-04
 -8.0174309e-01
  3.7212376e-02
  7.8569537e-01
  1.1532836e-01
 -4.4137183e-01
  4.9544716e-01
 -4.2466521e-03
 -2.1324935e+00
  1.4853154e+00
 -1.4310526e+00
 -1.2282990e+00
  2.0800517e-03
 -4.2250553e-01
  3.5274377e-01
 -8.4164934e-03
 -4.4913936e-01
  9.2897135e-01
  2.4508339e-01
  7.0681930e-01
  5.1524104e-03
 -4.7794256e-01
  1.2130041e+00
  1.4050104e-01
  1.1069710e+00
  6.1480254e-01
  2.1139013e-03
  1.1921652e-01
  1.6251286e+00
 -8.7746745e-03
 -2.7320834e-02
  5.9127882e-02
 -8.0949944e-01
  1.8276216e-02
  1.1418268e-02
  3.3045447e-01
  3.8626939e-02
  5.2810214e-03
 -7.7947150e-03
 -4.1069496e-02
  1.8281846e-03
 -1.3345581e-03
  8.4802397e-02
  1.8599797e-03
 -3.0264049e-03
 -9.5041152e-03
 -1.1301860e-01
 -1.3917439e-02
  1.8559294e-02
  6.7881264e-02
 -3.8047727e-02
  4.2889748e-02
  1.4646437e-02
 -3.6251403e-03
 -1.7928135e-02
  3.2857957e-01
 -3.1641621e-02
 -3.1769931e-02
  9.8008607e-03
  5.9607807e-03
  4.1606696e-03
 -1.3180886e-01
 -5.3588796e-02
 -1.4004489e+00
  1.7164364e-01
 -6.8940133e-01
 -7.3783690e-01
 -2.3775285e-02
 -2.5540492e-01
 -1.2569060e-02
  5.0928727e-02
  1.7942086e-01
 -3.5751686e+00
  1.7548127e-02
  6.2597346e-01
 -5.2061215e-02
  1.9461116e-02
 -7.1058744e-01
  7.7947307e-01
  2.5591987e-01
 -2.2165628e-01
 -1.0279758e-01
 -8.2469443e-03
 -2.8596810e-01
  4.8744123e-02
 -3.3360943e-01
 -2.6069075e-02
  2.7091792e-02
 -4.0965006e-02
 -1.1486702e-02
  4.2245258e-02
  1.8485592e-01
 -5.0577533e-02
  6.6824958e-02
 -8.5958183e-02
 -8.6031246e-01
  1.6891621e-02
 -3.7989851e-02
  6.1062220e-03
 -4.7403846e-02
 -2.0630461e-01
 -2.4314091e-01
 -1.3849767e-02
 -6.1599210e-02
 -3.6559448e-01
 -3.3687554e-02
 -4.0574693e-03
 -5.8213819e-02
  2.0211408e+00
 -2.0767633e-02
  1.1969405e-01
 -5.6812134e-02
  1.5165879e+00
  8.7079071e-02
 -7.2416677e-03
 -4.6523856e-03
  1.2845524e-02
 -1.5971239e+00
  1.6748196e-03
  4.2078942e-02
 -3.2784402e-02
 -5.7970011e-01
  4.0304086e-01
  6.0002875e-01
  7.1653806e-02
 -7.4886960e-01
 -9.8729879e-02
 -5.6488138e-01
 -1.9322371e-01
  6.8375893e-02
 -5.0424334e-02
  2.6877776e-01
  4.0482756e-02
 -3.9357018e-01
  7.4071139e-02
 -2.7299110e-02
  3.7295555e-03
 -1.7357992e-01
 -1.5954548e+00
  1.1406040e+00
  4.3694522e-02
 -6.9455445e-02
 -7.5675875e-01
 -4.6459147e-01
 -5.5714101e-01
  8.3248243e-02
  5.1473696e-02
  6.2877603e-02
 -1.8030839e-02
 -1.6981015e-02
 -7.6597380e-03
  1.3297174e+00
  9.7010732e-01
  9.9834299e-01
 -2.1648192e+00
  6.4171648e-01
  1.3549665e+00
 -2.0604646e-01
 -2.2125137e-01
  2.2267952e+00
 -1.3684766e-01
  1.3409588e+00
 -6.8771321e-01
  3.9524025e-01
  1.4865382e+00
 -2.9471254e-01
  8.8496393e-01
  1.5727912e+00
 -4.8918733e-01
 -1.7676070e-01
 -5.8788180e-01
  8.8605738e-01
  1.9474962e+00
  8.1940554e-02
 -5.1741219e-01
  3.6979097e-01
 -1.7410772e-02
  7.0601684e-01
 -1.1731745e-01
  8.9679992e-01
  5.0424927e-01
  5.1437002e-01
 -1.2042989e+00
  7.6179251e-02
  3.2140392e-01
  7.2460246e-01
  6.6906971e-01
 -7.1333371e-02
 -4.0235397e-01
  1.3092424e+00
  1.1594554e-01
 -1.3819119e-02
  6.6834599e-02
  3.7363704e-02
 -1.6745318e-01
  3.5383239e-01
 -2.0355266e-02
 -7.6298811e-02
  2.4786419e-03
  7.6735288e-01
  1.0832105e+00
 -8.7579906e-02
 -1.2261746e+00
 -6.4904355e-02
 -2.3030788e-02
 -1.9448565e-01
 -1.7641431e-01
 -8.9727165e-03
  4.5665625e-02
  8.4894393e-03
 -1.6187727e-02
  2.4937501e-02
 -7.1198031e-02
  1.6721547e-02
 -6.2193953e-02
 -1.2974353e-01
  6.6802882e-02
 -1.8715011e-02
 -2.7305273e-02
  1.2675779e-03
 -6.9908211e-03
  3.5143860e-03
 -2.0324498e-02
  8.4384615e-03
  8.4630795e-02
 -9.8230299e-03
  3.5690129e-02
  3.8279179e-02
 -2.3538034e-02
  8.8031553e-03
 -5.7613324e-02
 -9.6881799e-03
 -3.3887271e-02
  8.8815344e-03
  3.8733989e-02
  1.4447865e-02
 -7.2367610e-03
  3.2825220e-02
 -6.3865684e-02
  4.9889937e-02
 -1.4385367e-02
  6.5052189e-02
  4.1791994e-02
  1.4922341e+00
 -2.2243056e+00
 -1.1957598e-01
  2.2089650e-04
 -1.3291801e-02
 -4.7311388e-02
 -8.8759236e-02
  5.5503011e-01
  2.1414959e-01
  4.5049667e-02
 -5.9174281e-02
  9.7099572e-02
 -3.4279071e-04
 -1.3344548e+00
 -6.6667467e-01
 -2.1156590e+00
 -3.2065129e-01
 -1.7823884e-02
 -3.3248234e-01
  1.3320652e-02
 -7.2755891e-01
  6.3071780e-02
 -8.2104182e-01
  1.2964377e-02
 -8.4197015e-02
 -8.3000028e-01
  2.6938140e-01
  8.0644228e-03
  4.9695730e-02
  8.6705811e-02
 -1.3922054e-01
  1.6312516e-01
 -1.1621863e-01
  7.5638704e-02
  2.3272268e-02
 -8.3646797e-02
  2.5501113e-02
 -2.8192720e-01
 -1.0804152e+00
  3.6745945e-03
  2.9926613e-01
  1.0982154e-01
  1.7142573e-02
  4.9869475e-01
 -2.6836854e-01
 -1.1184868e+00
  2.2522336e-01
  2.0572411e-01
 -1.0522268e-01
  4.6485756e-02
 -7.2449881e-01
  2.4976905e-02
 -1.8964678e-01
  9.3571804e-02
 -1.2625059e-01
 -4.8144093e-01
 -1.1063422e-01
 -7.0541941e-02
 -1.0090435e+00
 -3.1532839e-02
 -1.2450906e-02
 -4.0818579e-02
 -1.0752141e-02
  8.4394952e-03
 -5.8680069e-02
 -1.8814573e-02
 -1.2640335e-02
 -4.4662222e-02
  3.4782264e-02
 -1.1801949e-02
 -1.0739487e-01
  1.9052612e-02
 -4.0619478e-02
  3.2809995e-02
 -1.0531884e-02
 -1.3054869e-01
  3.0577930e-02
  9.1980295e-03
 -1.9052969e-02
 -8.7336518e-02
 -1.0787847e-03
  4.3188385e-03
 -2.5082035e-02
 -5.4337038e-03
  1.4644879e-02
  1.4323724e-02
 -1.6755398e-02
  4.0334081e-03
  1.3324414e-02
 -1.2837619e-02
  7.8723254e-03
 -6.4582080e-03
 -2.3357303e-01
  1.5193977e-03
 -2.7233739e-03
 -8.8542700e-02
 -9.5890909e-03
 -1.9790448e-02
 -4.4793268e-03
  2.9954053e-02
  2.4111420e-02
 -1.3460810e-02
  5.2833921e-01
 -3.4800921e-02
 -4.4690188e-02
 -3.0644890e-02
 -3.9472420e-02
 -8.2931429e-02
 -2.6342109e-02
  1.0947118e-02
  5.2893013e-03
 -9.9717844e-03
 -1.6221728e-02
  6.7293979e-02
 -4.1557993e-03
  3.6854032e-02
 -4.7899839e-02
 -3.6974527e-02
 -3.9900742e-02
 -9.1009578e-03
 -4.4050589e-02
  9.9188849e-02
  2.4959548e+00
  2.3828307e-02
 -6.6226847e-02
 -2.7570882e-04
 -2.5347754e-02
 -2.4538973e-02
 -2.6533067e-02
 -9.2803352e-03
  2.5380991e-02
 -5.8482764e-03
  4.2932078e-02
  8.3157858e-03
 -1.7189268e-02
  1.2714918e-02
 -1.0394717e-01
  1.0733781e-02
 -9.3183527e-03
  1.7133951e-02
  6.8498622e-03
 -6.6668442e-03
 -3.8915176e-02
 -3.2569665e-02
 -4.7622778e-02
  4.0156350e-02
 -5.3490619e-03
 -5.5634189e-02
  1.9376819e-03
 -2.6378008e-02
  1.9583480e-02
 -4.6045307e-02
 -2.7873304e-03
  2.7753897e-02
  2.0843975e-03
 -1.9152578e-02
 -5.5825110e-03
  1.0362390e-02
  4.9472377e-02
 -2.9916853e-02
  2.5789075e-02
 -5.1510286e-02
 -2.1795135e-02
 -4.9317930e-02
 -3.8769115e-02
  2.5361755e+00
 -4.5438921e-03
  1.6658540e-03
 -2.2436427e-02
 -1.8582722e-02
 -1.1476499e+00
  3.3464152e-02
 -3.2590747e-02
  1.6601795e-03
  2.4977481e-02
  2.1879241e-02
 -2.0480653e-02
 -1.5591848e-02
 -6.2835440e-02
  1.1000007e-01
  3.6008158e-03
  1.2949599e-02
 -9.0984274e-03
 -4.3677382e-02
  3.0733608e-03
 -4.3138862e-02
  7.2070025e-02
 -3.1028671e-02
 -3.4520872e-02
 -9.6043125e-03
 -7.0932359e-02
  4.7192704e-03
 -1.9895548e-02
  1.1557383e-02
  8.0437269e-03
  3.5862417e-03
 -1.0689094e-02
  2.8457612e-02
  4.0931595e-03
 -8.7863002e-03
 -3.3029780e-02
 -1.9167569e-03
 -5.5145785e-02
  3.7775766e-02
  6.8220929e-03
  1.0709474e-01
 -3.9366078e-02
 -5.0545916e-02
 -1.0192670e-01
 -6.4604479e-01
 -4.3746048e-01
  4.6780992e-01
 -3.4554610e-01
 -2.5895987e-02
 -4.6457765e-03
  2.5792583e-03
 -7.8342576e-03
 -2.3884775e-02
  8.0937184e-03
  4.2205738e-04
 -2.1830387e-02
  1.4996225e-01
 -6.8924785e-02
 -6.5836920e-03
  3.6206964e-02
  6.6183065e-03
 -9.6947188e-04
  6.4266156e-03
  1.7332430e-03
  1.8611845e-02
  1.3462370e-02
 -1.9031461e-01
 -4.1874303e-03
 -5.4420270e-02
 -1.4443842e-02
  1.1545712e-02
  2.2413287e-02
 -5.5821639e-02
  7.7891955e-03
 -6.9397353e-02
 -6.3089006e-02
 -8.4426291e-02
  1.6007265e-02
 -7.4212160e-03
  2.1391867e-02
  1.7954871e-02
  9.8462375e-03
 -2.8850684e-02
 -4.3546185e-02
 -5.3829320e-02
  1.8727217e-02
  1.3345277e-02
 -2.2644183e-02
  8.3472338e-03
  5.1366106e-02
  2.3829134e-02
  1.7006056e-02
 -4.5362911e-03
  2.3520080e-02
 -1.2449048e-02
 -8.0566026e-02
  2.2829264e-02
  2.4288237e-02
 -9.9083856e-03
 -1.2893760e-02
 -7.5869158e-02
 -2.1053219e-02
  5.1834393e-01
 -2.3386972e-02
 -1.3783260e-02
  4.7126915e-02
  2.3249376e-03
  3.9481692e-02
  1.0425077e-01
 -2.7566545e-03
 -1.3709788e-02
 -3.5779715e-02
 -6.4345561e-02
 -1.7943598e-02
  4.2738137e-03
  6.9743986e-03
  2.0294109e-02
  1.4690375e-02
 -8.6600654e-02
 -6.3557504e-03
 -3.4581915e-02
 -1.7656568e-02
  6.2509008e-02
  5.1939081e-02
 -2.7172442e-03
  2.2287217e-03
 -8.0582742e-03
 -2.1318803e-02
 -2.9875398e-01
 -4.3378498e-02
  3.2560024e-03
  1.0023445e-02
  8.8929478e-03
 -1.3692199e-02
  4.7805589e-03
 -1.1820496e-02
  3.4803532e-02
 -2.4309275e+00
  8.1091793e-03
 -8.6692773e-02
 -8.8486776e-02
  2.6288088e-02
 -1.0647312e-01
  1.4560840e-03
 -4.1748878e-02
 -5.1283455e-03
  1.1325484e-02
  8.6035572e-02
  1.2818028e-02
 -2.0754345e-02
  4.2719342e-02
 -1.0027431e-02
  6.1969021e-03
  2.1747623e-02
 -3.8997617e-03
  2.8044818e-02
 -3.1242063e-02
  1.3778190e-02
 -2.6779069e-02
  1.1943018e-02
 -2.6124753e-02
 -6.3395519e-03
  1.6138788e-02
 -5.1947176e-01
  1.1324945e-02
 -1.4915179e-01
 -9.3724318e-02
  1.7061779e-01
 -1.0672048e-03
 -2.2714583e-03
 -4.0399842e-02
  2.8238900e-02
  2.9401308e-02
 -1.9266765e-03
 -1.4241688e-01
 -3.0734032e-04
  1.5838754e-03
 -6.2922552e-02
  2.9243086e-03
 -8.4438044e-01
 -7.9917818e-02
 -8.4482189e-03
  2.5102075e-03
  4.3856069e-02
 -5.6578210e-03
 -1.8511016e-02
  4.7770910e-02
 -1.0588758e-02
 -3.1787671e-02
 -4.2344420e-03
 -1.0902779e-01
  1.0267171e-02
  4.2349759e-02
 -1.2328970e-01
 -7.1932149e-01
  8.1364578e-01
  1.4977518e+00
 -1.2971133e-02
  8.0203293e-03
  1.8327180e-02
 -2.9774083e-02
 -2.4614763e-03
  1.3704612e-02
  8.3965380e-03
  1.2657318e+00
  6.2554991e-01
  1.2638696e-01
 -2.4455955e-02
  3.0197792e-03
  1.5470050e-01
 -3.3476345e-02
  3.8815627e-01
  5.8594707e-02
 -4.5190226e-02
  2.1781009e-01
  2.1749504e-02
 -1.4050617e+00
  3.5264973e-02
  8.3630942e-03
 -4.7107596e-02
  1.5553872e-03
  1.0818925e-01
 -1.3019845e-02
 -2.2589028e-01
  4.6487218e-01
 -4.1268297e-02
 -7.8205289e-03
 -1.8644270e-02
 -1.8302443e-02
  4.7993425e-02
 -2.6611364e-02
 -1.3811398e-02
 -7.7763543e-02
 -4.9302477e-02
 -3.5023622e-02
 -1.6574679e-02
  2.7145671e-02
 -5.0670467e-02
  2.0397279e-02
  1.2924760e-03
  3.2852429e-03
  8.1534155e-02
 -1.9855648e-02
  1.1585666e-03
 -1.4741375e-01
 -6.4130314e-02
  2.8526761e-02
 -2.5054133e-03
  5.9527025e-02
  3.7404083e-02
  6.2194280e-03
 -1.4359327e-02
 -7.9381779e-02
  1.0127689e+00
 -2.4353367e-01
  2.2117186e-02
 -9.1826892e-01
 -2.5563467e-01
 -1.0942929e-01
 -6.0971445e-01
 -8.2703233e-03
  1.4551773e-02
 -3.8880267e-04
 -5.5232629e-02
 -6.4526342e-02
  7.0730165e-02
 -5.6687675e-02
 -1.5159790e-02
  3.0343953e-04
 -2.4523133e-02
  6.0401790e-02
  4.9883798e-03
  1.5319509e-02
  1.4097038e-01
 -1.9378793e-01
 -1.3413114e-02
  4.9385630e-02
  5.2957088e-03
  1.6163200e-02
  2.7891183e-02
  3.0579442e-02
 -1.6027410e-03
  3.3431780e-02
 -1.0438694e+00
 -7.5381748e-02
 -4.9923845e-02
  1.7645808e-02
  1.5599220e-02
  4.9554262e-02
 -2.9059384e-02
  8.7439362e-03
  4.9927417e-02
 -4.6651848e-02
 -7.0048292e-04
  1.2610129e-01
  1.0305766e-02
  1.4400116e-02
 -1.2365704e-02
  1.8163746e-02
 -3.3618741e-02
 -3.0073985e-02
 -1.6794335e-02
  4.9642019e-02
 -1.9203709e-02
  4.5130409e-02
  2.5719241e-03
  4.5185637e-02
  2.4894373e-02
  3.3401839e-02
  6.2753782e-03
  3.2692976e-02
 -6.9894148e-03
  6.0490508e-02
  1.8571952e-02
 -8.0008186e-02
 -7.4947424e-02
 -2.6786948e-02
 -5.9106131e-03
  6.9503806e-04
  5.5889515e-03
 -2.1000473e-02
 -1.2651179e+00
  2.5115240e-02
 -1.8494714e-02
  2.0669019e+00
 -1.0182968e-02
  5.9723981e-02
 -3.8891170e-02
  7.4306144e-03
  6.3448876e-02
  1.4862249e-02
  3.4309328e-02
 -3.7615620e-02
 -3.7219720e-03
  2.0296869e-01
 -1.3620681e-02
  3.4476319e-01
 -1.5363540e-03
 -2.4169604e-03
 -2.2757376e-02
 -8.4012537e-04
  1.3821783e-02
  4.2891814e-03
  2.3982167e-01
 -6.0298413e-01
  4.3303058e-01
  1.8719150e-01
  8.7796047e-02
 -9.6775470e-03
 -5.1228441e-03
 -4.1264902e-05
  6.7639127e-02
  2.5946803e-02
  3.0368832e-03
  3.3266492e-02
 -3.0106360e-02
  1.7737791e-01
  9.6469522e-03
  5.2874540e-03
  3.8064626e-01
 -5.0359134e-02
  7.1030244e-02
 -1.7161533e-03
 -5.2385151e-02
  3.0494478e-01
 -1.2489759e-02
 -2.6249911e-03
 -1.2191819e-02
 -1.7080950e-02
 -1.4343908e-02
  3.3705536e-02
  3.1821325e-02
 -2.1528456e-02
  1.4121141e-02
  6.4335875e-03
  5.8991876e-03
 -1.0972566e-01
  2.9187845e-02
  1.2843602e-02
 -1.5784737e-02
 -8.8306759e-03
  4.1497815e-02
  4.8008632e-02
  1.2067614e-02
  5.6201359e-03
 -2.9153975e-02
  2.6408955e-03
  3.1978585e-02
  5.2310575e-02
 -1.6156781e-02
  1.4652111e-02
  1.1665145e-02
 -2.7896666e-03
 -6.0642511e-02
 -1.5052841e-02
 -3.1348187e-02
  1.2940456e-01
  4.6767280e-03
  3.7890792e-02
  1.8021524e-02
 -2.1881864e-03
 -1.6232895e-02
  1.0657662e-01
  1.8514259e-02
 -3.3085007e-02
  5.9499200e-03
 -5.0758027e-02
 -8.9433938e-03
 -2.0190911e-02
  1.0919794e-02
  3.3108048e-02
 -6.0163811e-02
  3.2896634e-02
 -1.6737716e-02
  2.1411210e-02
  5.1551405e-02
 -5.6704309e-02
 -1.2016336e-02
 -3.1079955e+00
 -8.3323151e-02
  1.2547353e-02
 -1.9441096e-02
 -3.2567284e-03
  4.1718869e-03
  6.5460317e-03
  9.1841575e-03
 -2.5204414e-01
  1.1368103e-01
  6.0221869e-02
 -5.2196437e-01
  3.6128562e-02
  2.8829116e-01
  3.9365470e-02
 -2.7431867e+00
  4.4670910e-01
  5.2794021e-01
  3.2525267e-02
  2.1272931e+00
 -4.9415128e-03
  1.8133527e-02
 -1.9395456e-03
 -2.1681758e-02
  6.9359750e-02
  1.6018907e-02
  6.2012475e-02
  2.6125966e-02
  2.6837978e-01
  5.2241730e-03
 -2.2438368e-02
  4.3017179e-02
  6.5336749e-02
  4.0490832e-03
  1.4812375e-02
  5.6745494e-03
  2.5470128e-02
  3.8089648e-02
  3.0678117e+00
 -3.1842876e-02
 -7.2524473e-02
  1.5836682e-03
 -7.1609369e-03
 -5.6485150e-02
  1.7340377e-02
 -8.6586401e-02
  3.1407610e-02
 -2.3454376e-02
  7.2525447e-04
 -2.2986408e-03
 -5.0528921e-02
 -8.2639186e-03
 -1.3048588e-02
  2.7490221e-02
  3.4942850e-03
  1.5417378e-02
  1.7704042e-02
 -4.3572772e-01
  1.1745617e-01
  5.1058270e-03
 -4.0568784e-02
 -1.0839704e-01
 -1.6800826e-03
  2.1606237e-03
 -2.2582766e-03
 -1.6504997e-02
 -2.9046979e-04
  1.9264875e-03
  2.9387260e-02
  1.7979138e-02
 -3.5928262e-03
  7.7191079e-03
  1.0125886e-02
 -3.6586120e-03
 -2.2373645e-02
  1.0087698e-01
 -6.2482007e-02
  1.7693080e-01
  9.0704197e-03
  2.6473777e-02
  5.3221773e-02
 -7.4178822e-02
  5.1227524e-03
  3.7021518e-02
 -6.7660082e-03
 -2.0216478e-02
 -1.4547709e-02
 -6.1043417e-03
  5.0735576e-03
  3.9232027e-02
 -4.8968539e-02
 -2.3513826e-02
 -2.3193588e-02
 -1.1792971e-01
  3.1464105e-03
  1.0053238e-02
 -7.9279225e-03
 -9.9135172e-03
 -2.0872679e-02
 -9.5542885e-02
  2.4056291e-02
 -1.3508836e-02
  1.8566864e-02
 -5.5057134e-02
  1.9092850e-02
 -1.4526327e-03
  9.6798027e-03
 -9.9361893e-03
 -1.0587959e-01
  1.8190227e-02
 -3.6084841e-03
  2.2604302e-02
 -4.9334094e-02
 -2.1201987e-02
  1.9366300e-02
 -2.9265147e-01
  1.8112751e-02
  9.5970165e-03
  6.0598203e-03
  2.5283614e-02
  2.0051468e-02
  3.7806768e-02
  6.7988388e-02
  2.4728770e-03
 -7.4534497e-04
  2.7310027e-02
  2.9801166e-02
 -1.5955407e-02
 -2.1040013e-02
  5.7973593e-01
  9.7510582e-03
 -9.2474401e-01
 -7.0883967e-03
 -2.3875792e-02
 -4.6352767e-03
 -4.6395440e-02
 -4.2281516e-02
  1.4225122e-01
  5.8747876e-01
  1.0029830e-04
 -2.6607657e-02
 -5.1743761e-03
  1.0301370e-02
 -8.9472443e-02
 -2.4471914e-02
 -7.9587698e-03
  7.6887645e-02
 -3.6631578e-03
  1.2032187e+00
 -7.8203576e-03
 -2.6333418e-02
  1.0677104e-01
 -2.1914382e-02
 -2.7695991e-02
 -6.2438175e-03
 -1.1358138e-02
  1.9661056e-01
  1.3362338e-02
  3.2117840e-02
  7.0153624e-02
  3.9808100e-04
 -3.3966575e-02
  5.0091285e-02
  4.4155764e-04
 -8.5460201e-02
  3.8568679e-02
  9.1608427e-03
 -1.3354301e-03
 -2.2882096e-02
  1.5405756e-01
 -1.9995289e-02
  1.2461059e-02
  2.6043732e-02
 -7.6733112e-02
  9.5318649e-03
  1.7403893e-03
  1.1247019e-01
  1.9779943e-02
 -8.1149619e-03
 -8.9443009e-03
 -3.1856518e-02
 -6.3765281e-01
 -2.4628313e-02
  2.0372406e-02
  6.4457436e-03
  5.2443586e-02
  3.9116401e-02
 -1.6415237e-02
 -2.4465857e-01
 -2.9682147e-04
  4.4481244e-02
 -1.6931951e-02
  3.0633541e-02
 -4.1469108e-02
 -1.6582530e-02
  2.7451640e-02
  1.8634615e-02
  9.1974638e-02
 -4.8935536e-01
  2.1666272e-03
 -8.2703844e-02
 -3.6747112e+00
 -4.9898722e-03
  6.7053555e-04
  4.3819137e-03
  3.7916559e-01
 -2.3505732e-01
  4.4529713e-03
 -1.5875761e-01
 -1.5764432e-02
 -2.7984656e-02
 -1.3759031e-02
  2.2908954e-02
 -3.7036713e-02
 -7.4643530e-03
  5.8694929e-02
  4.4552623e-03
  2.2174828e-02
  2.2441737e-01
  2.4711208e-02
 -1.5576848e-02
  2.6894972e-02
 -1.9448029e-02
 -5.0410023e-03
  5.1027811e-03
  1.9898741e-01
 -2.1353962e-01
 -1.8920895e-01
 -3.3081278e-01
  4.9014516e-02
 -6.2506399e-03
  1.3029730e-01
  5.3948257e-03
  9.5719524e-02
  1.3199450e-02
  1.1395001e-02
 -2.2744499e-01
  2.7661538e-02
 -8.3047903e-01
  2.8054036e-02
 -9.9330813e-02
  1.9441974e-01
 -6.4913228e-02
  7.8980643e-01
  1.4003403e-02
  4.2382744e-03
 -1.6847723e+00
  3.3090860e-02
 -6.0800874e-01
 -2.2223750e-02
 -4.1426439e-02
  8.4121414e-02
  1.5412053e-02
 -2.8104974e-02
 -3.9773220e-03
 -7.8453578e-04
 -3.2233767e-02
 -7.7630202e-03
  6.6975300e-04
 -1.4711255e-01
 -2.5178749e-02
  2.5825990e-02
 -1.1120909e-02
 -2.7957654e-01
  3.0183552e-02
 -3.6905162e-02
  1.1823126e-02
 -8.6711593e-02
  1.7539643e-02
 -3.5293881e-02
 -4.8957914e-02
 -3.8466628e-03
  4.6435562e-03
 -3.2287914e-02
  5.1988486e-02
 -2.8603144e-02
  4.9417529e-02
 -1.8600587e-02
 -6.6291854e-02
  8.5809939e-03
  2.7093866e-03
 -9.3777794e-03
 -1.2189410e-02
  2.2435705e-03
  2.9262595e-03
 -3.7600467e-01
 -3.1667909e-01
  4.8373677e-02
  3.3154091e-01
  8.5396536e-02
  1.7451446e-01
 -1.8130340e-02
  3.1131546e-03
 -4.4665050e-02
 -3.3394806e-02
  1.4587633e-01
  4.3127137e-01
  3.0414023e-02
  2.3023462e-01
  4.6054757e-04
 -6.7899646e-03
  1.0912017e+00
  2.5368441e-02
 -6.9265223e-01
  3.4487976e-03
 -1.0423162e-01
  7.4906802e-01
 -3.4998078e-03
  5.9527618e-01
 -2.1229950e-03
 -5.0961468e-02
  2.2117903e-02
 -1.0381836e-02
  2.9511038e-02
  3.8434625e-02
 -1.4134860e+00
  6.3271022e-01
  6.5370858e-01
 -5.3635812e-01
  9.2894298e-01
 -1.5449941e-02
  2.8428059e-02
 -4.8451135e-03
  1.2068372e+00
 -2.2291932e-02
  1.2791023e-02
 -6.5659505e-01
  1.6950568e-02
 -2.4402434e-02
  1.1499331e-01
 -9.3955344e-01
 -1.0697916e+00
  1.6844008e-02
  9.2079026e-01
 -5.7270788e-02
  1.7685401e+00
 -9.4115680e-01
 -3.1032808e-02
  6.6443253e-01
  3.7449577e-03
  4.7377273e-02
  8.1180871e-02
  8.8296551e-03
  1.5873315e-02
 -6.3041769e-02
  5.3893340e-01
 -7.1417236e-01
  1.2399215e+00
 -5.7576787e-01
 -9.7345877e-01
  2.3410358e-03
  2.0222852e-01
 -6.2936246e-02
  2.8622693e-01
 -6.2971376e-03
 -3.1192821e-01
 -1.4308326e-02
  2.3855956e-02
 -3.3979237e-01
 -5.1390979e-02
 -5.0917617e-04
 -8.6248381e-04
 -3.2914646e-02
  1.1212589e+00
 -7.9010643e-02
  1.8294840e-01
  9.4530806e-02
  1.2368090e+00
  1.3507369e+00
  8.7766126e-03
  7.1322070e-03
  8.0379506e-04
 -4.6309080e-02
 -3.3663486e-03
  9.7465469e-03
 -9.5619485e-03
  2.3665682e-03
  4.9133178e-02
 -4.7291890e-02
 -5.9461547e-03
  1.5352316e+00
  1.3509835e-04
 -2.3216458e-02
  3.8564526e-02
 -3.5962496e-02
  9.1169430e-03
  6.4892930e-01
 -5.9245890e-01
 -3.1144749e-02
  1.5080309e-03
 -8.8196248e-02
 -1.9634613e-03
  3.0312872e-01
 -1.0354195e+00
 -5.6345463e-03
  1.1518866e-02
 -3.0362865e-02
  2.8639354e-03
  4.8534811e-02
 -1.0182411e-02
 -1.3947340e-02
  5.4167986e-01
  5.2225953e-01
 -3.5322183e-01
  1.1351106e-01
  2.1595756e-02
 -3.5343948e-01
 -1.3138514e-03
 -1.1835846e-02
 -1.0534997e-01
  8.3293194e-01
 -8.3184868e-02
  3.6914293e-03
  5.1714215e-02
 -4.7786117e-01
  1.1147370e+00
 -5.4808092e-01
 -6.5266299e-01
 -7.6414242e-02
  4.1631976e-01
  1.0362806e+00
 -2.0993564e-02
  8.6166814e-02
  4.7343892e-01
  1.6323507e-02
  9.8967357e-03
  1.0442343e-02
  8.1829405e-01
  2.5423279e-01
 -5.4623616e-01
 -1.3990837e+00
  2.9655322e-01
  1.2039173e+00
 -2.2174931e+00
 -1.8558862e+00
 -4.3938115e-02
 -1.8508313e-03
  4.1302736e-03
 -6.3744888e-02
 -4.7660306e-01
  9.5688011e-03
 -1.2623323e-02
  8.4011175e-02
  4.8923781e-03
 -8.5390666e-03
  8.7247258e-03
  5.9231953e-03
 -4.3247413e-02
  7.4114967e-03
  2.5914446e-04
 -1.5736783e+00
  7.1739599e-02
  3.6576781e-02
 -3.7797228e-02
  4.7695503e-02
 -5.2595295e-02
 -6.7548878e-02
  1.8197834e-02
 -3.2284997e-02
  8.2777962e-02
 -2.0023605e-02
  1.7815079e-03
  6.3205443e-02
  3.0876879e-02
  1.0316405e-02
  3.6669523e-02
  1.0606513e-01
  3.2625848e-01
  3.4731138e-01
 -7.8558475e-01
  1.7174557e-02
  2.2028219e-02
 -4.0932391e-02
 -2.0606892e-02
 -2.8378405e-02
  1.8669887e-02
 -3.5925217e-03
 -2.4975546e-02
 -4.1108146e-02
 -6.2512010e-01
 -9.8618045e-02
  5.1094420e-02
  5.4504663e-02
  4.3844037e-02
  5.4357793e-02
 -7.6067573e-03
  2.3125309e-02
  1.3505832e-02
  4.1473869e-02
  2.1523833e-02
 -2.1598142e-04
 -4.7899969e-02
 -5.4441661e-02
  3.5807181e-02
 -1.7136713e-02
  3.6458391e-01
 -1.7979307e-01
  2.7711257e-02
 -3.1301883e-01
  1.6169576e-01
 -1.6650082e-01
  2.9019825e-02
 -1.1289643e+00
 -1.2972620e-03
  6.7801028e-01
 -5.2587916e-03
  7.2533526e-02
 -1.5268175e-02
 -5.4571584e-02
  2.6683891e-03
 -1.2963541e-02
 -4.6652146e-03
 -1.4990704e-02
 -2.8181652e-02
  5.0844965e-03
  1.4612303e-02
  3.9243836e-02
  9.4927058e-02
  8.0709420e-03
  2.8593091e-02
 -8.6391076e-02
 -2.6632335e-02
 -2.8405167e-02
  1.6660603e-02
  3.2757330e-03
 -5.3829155e-03
 -2.4820559e-02
 -4.9695061e-03
 -3.8747519e-02
 -5.7195976e-02
  2.0660760e-02
  5.0757700e-03
 -2.6677705e-02
 -3.4594513e-02
  1.9830726e-02
  3.1206155e-02
 -6.7078983e-03
 -2.3080080e-03
  1.3814764e-01
 -6.4722098e-02
  1.0000989e-01
 -1.2808960e-02
 -4.1906379e-02
 -1.5421484e-02
 -1.9668113e-03
  1.7737955e-02
 -1.3872413e-02
  7.3219333e-03
  1.2712258e-02
  1.1112371e-02
 -7.3572625e-03
 -2.6966825e-02
  9.6591320e-03
 -1.9887043e-03
 -1.3802017e-02
  1.0984149e-02
  6.6094056e-02
 -7.3966064e-02
 -3.0490509e-01
 -5.0754887e-03
 -7.1955919e-01
 -2.4515495e-02
 -4.2800205e-03
 -2.1109033e-02
 -9.1487400e-02
  1.6464675e-02
 -1.4994046e-02
  4.9234889e-02
  2.4056617e-02
  1.3042840e-01
 -2.0603759e-02
 -3.5890639e-02
 -6.5470957e-03
 -6.9986895e-02
 -9.9544348e-03
  2.1911228e-02
  3.4895729e-02
  2.5045818e-02
 -2.5357978e-02
 -1.8053716e-02
 -5.3995284e-03
  2.7984316e-02
 -3.2060690e-02
 -5.4141674e-03
  1.3361452e-02
 -9.3605816e-02
 -3.8987938e-02
 -4.1618608e-02
 -3.5388131e-02
  7.0714012e-02
 -1.6694091e-02
  1.0670864e-02
  4.9900305e-02
  1.7009646e-02
 -5.9895483e-03
  1.8875478e-03
 -1.3042267e-02
 -6.6002056e-02
 -4.1997666e-03
  3.8200114e-02
  3.8942613e-02
 -2.9298430e-02
 -3.6585791e-04
 -1.0562217e-02
 -6.0748197e-02
  1.1556773e-02
 -3.9772838e-02
  1.2233797e-02
  4.9773399e-02
 -7.6624885e-02
  1.4010934e-02
  1.2818815e-01
 -4.9264777e-02
  4.7661714e-02
 -1.4158093e-02
 -3.8273495e-01
  1.0550232e+00
 -7.0131201e-01
 -1.2754066e-01
 -1.7767723e-01
 -1.0731028e-02
  3.8282856e-02
  3.7559010e-02
 -2.7483510e-02
 -4.0051313e-03
 -2.8042706e-02
 -4.8720919e-02
 -6.3876376e-02
  1.6429039e-02
  1.9826896e-02
 -2.9500851e-03
 -4.3423437e-03
  1.0793073e-02
  1.9442538e-02
 -3.4331419e-02
 -1.8898650e-03
 -4.1671246e-02
 -1.9186356e+00
  3.9490137e-02
 -3.7369251e-02
 -6.3221166e-03
 -1.1106192e-02
 -1.8876746e-02
 -1.0194523e+00
 -2.3430897e-02
 -8.7234616e-02
 -4.5996937e-01
  4.0611160e-01
  1.6432218e-01
 -1.7732264e+00
  4.4055715e-01
 -1.5436760e-01
 -4.2180747e-02
  1.6301346e-01
  1.1218774e-01
  2.6065975e-01
 -3.1950697e-03
 -2.8980678e-01
  2.2186078e-01
  7.1449480e-03
  3.1130660e-01
 -4.7237268e-01
  5.3305631e-03
  3.8370531e-02
 -2.7481087e-03
  6.9792010e-02
 -1.8360989e-01
 -7.0274103e-01
  1.1249638e-01
  4.4658180e-02
  9.6564554e-03
  2.7490750e-02
 -2.8036781e-02
 -4.8693396e-02
 -4.7919426e-02
 -2.0102061e-01
  1.4517467e-02
 -1.5780421e-01
  5.4209054e-01
 -5.8466222e-02
  8.1178565e-03
 -8.4271634e-01
  1.5628127e-02
  2.2376763e-02
 -2.4418958e-02
  7.4873723e-02
 -5.7335333e-03
  1.8150095e-02
 -6.8081155e-02
 -4.9565434e-02
  1.4832649e-01
 -8.4441614e-01
 -1.9832461e-01
 -1.9380309e-03
 -3.3901669e-02
  2.0481306e-01
 -5.7202756e-02
 -1.2679388e-01
 -1.0541276e-01
  6.1142080e-02
 -3.1124707e-02
  4.7565389e-02
  1.3655328e-02
 -6.5599597e-01
 -5.7550620e-02
 -2.6923181e-02
  8.7822229e-02
  3.6343604e-02
  1.9594952e-02
  1.9627446e-03
 -4.4887997e-03
  1.3918558e-02
 -1.6652526e-02
 -3.9952405e-02
 -3.2731250e-03
  1.6149294e+00
 -1.0345635e-02
  9.8831998e-03
 -8.1561588e-02
 -9.5355615e-02
 -8.3316527e-03
 -6.1335904e-03
  6.5621939e-03
 -1.4186673e-02
  1.1640263e-02
 -4.4340163e-02
  1.5489577e-03
 -3.5859667e-02
 -2.5150694e-02
 -4.8032809e-02
  1.6076311e-02
  8.7999301e-03
  3.2720674e-02
  1.3685695e-02
 -1.3514945e-02
 -5.5887437e-01
  5.2335739e-01
 -8.2136649e-01
 -1.1237481e-01
 -7.4208361e-01
 -4.7901613e-01
  1.0290155e+00
 -1.5336349e+00
  5.2579552e-01
 -6.9474634e-03
 -1.5054698e+00
  5.6523669e-01
 -7.2325277e-01
  6.0758090e-01
  1.7281509e-03
 -1.1923621e+00
  1.1171120e+00
 -1.1475537e+00
  2.1050008e-01
  3.4523185e-03
 -7.9404891e-01
  2.3978114e-01
  4.0158728e-01
  3.8261437e-01
  2.5377157e-01
 -7.9150105e-01
 -7.2937056e-02
 -6.4348443e-03
 -2.2809830e-02
 -9.3819881e-03
  1.3240592e-01
 -7.1083508e-02
  1.1633136e-01
  5.2870598e-02
  1.0202044e+00
 -4.0394813e-02
 -6.4180188e-02
  6.1411406e-03
  5.3189076e-03
 -1.2259104e-02
  1.6114898e-02
 -1.9257354e-02
  4.7684003e-02
  1.7469340e-03
 -1.5045011e-02
  9.5513966e-03
 -8.2817279e-02
 -4.5738820e-02
 -4.0250823e-02
 -1.8781770e-02
  6.9243484e-03
  9.8307785e-03
 -7.1710059e-03
  2.9573881e-03
  3.7717108e-02
 -6.6892672e-03
 -2.8952640e-03
 -6.8558040e-03
  2.8216369e-02
 -1.0345371e-02
 -5.9159046e-01
  1.5018348e-01
  1.1649210e-01
  7.6084834e-01
 -2.6843297e+00
 -5.0306636e-01
  1.9833708e-02
 -1.3044809e-02
 -4.0476926e-02
 -6.7256722e-03
 -4.9342647e-01
 -2.6726626e-02
 -3.1464778e-02
 -1.9157993e-02
  1.0003492e-02
 -2.8199685e-01
  6.4009324e-02
 -1.1586145e-01
 -6.3277776e-03
  1.0169099e-01
  2.3500074e-03
  6.5718430e-01
 -8.0248111e-01
 -6.3711435e-02
  3.2800533e-02
 -9.9699058e-02
 -6.3435095e-03
 -2.6069874e-02
  2.4116259e-02
  1.7910197e-03
 -8.3156914e-02
  2.5399547e-02
 -1.0907385e-01
 -1.9840788e-02
  6.9213718e-02
 -7.4298219e-03
 -1.2134898e-02
 -7.2392644e-03
 -2.2110460e-02
 -2.6101694e-02
  4.3268666e-02
  1.2284257e-02
  6.9418505e-02
 -5.0640259e-02
 -2.2561539e-02
  4.5772232e-04
 -8.5300207e-03
 -1.9099085e-02
 -5.2904181e-02
 -1.0460479e-02
  3.5932755e+00
 -1.3491517e-02
 -2.9681019e-02
  1.7732654e-02
 -1.4462685e-02
  2.1004021e-02
  4.9505569e-02
  4.3423721e-03
  4.1850138e-02
  9.5634677e-02
  2.5633394e-04
  5.3410478e-02
 -4.3147299e-02
  1.0590107e-02
  6.3169174e-02
 -3.2501440e-02
 -6.4783812e-01
  2.9071218e-01
 -6.4790584e-02
 -2.3299647e-02
 -1.4236449e-02
 -5.1153810e-03
  1.6255852e-02
 -2.2581879e-03
 -1.6954154e-02
 -8.2219522e-03
  2.4038376e-02
  3.9524534e-03
 -5.7661727e-02
  2.1198614e-02
  1.5947761e-03
  4.1741434e-02
 -2.6027372e-02
  2.8061915e-02
  3.8008913e-02
  1.3582345e-02
 -2.0448260e-02
 -9.9189673e-03
  1.2227699e-02
  1.8905591e-02
 -1.3643225e-02
  1.2114375e-01
  4.0262822e-02
  5.5232178e-03
 -5.7213928e-04
  3.0855244e-02
  1.2607526e-03
 -6.6672033e-03
  1.2698055e-02
  7.2513722e-02
  6.1677443e-03
 -2.3104051e-02
 -6.5344810e-02
  4.5536673e-03
 -4.0438026e-03
  2.7955730e-02
  2.3809806e-02
  1.7903355e-03
  3.2403246e-03
  3.9950842e-03
  2.0444047e-02
  1.2945078e-02
 -4.8255178e-01
  1.0582440e-02
  5.5335984e-03
 -3.5045478e-02
 -8.4827875e-04
  2.3412561e-02
  1.3312690e-02
 -5.7027813e-02
  2.1101229e-02
  3.8134500e-02
 -3.0639755e-02
  2.9434321e-02
  7.7468557e-03
 -3.6811929e-02
  2.0115351e-02
  7.8218785e-04
 -6.6578854e-03
 -3.9866944e-03
 -1.8108115e-02
  4.0745787e-02
 -2.1713346e-02
 -3.8889956e-02
 -2.1761002e-02
  1.2494505e-02
 -1.9483041e-03
 -3.5982771e-04
  1.1972996e-02
  8.7494999e-03
  7.4892119e-02
 -1.0848548e-01
  1.9965664e-02
  2.1077734e-05
  3.6416359e-02
  1.0526954e+00
  2.6421007e-02
 -1.9178621e-02
  2.2485044e-02
  9.2192730e-03
  9.0367362e-02
  5.9281789e-02
 -7.3590651e-03
 -4.5471735e-02
 -2.9102804e-03
  2.2003476e-02
 -4.6687827e-02
 -3.3005647e-02
 -3.8240440e-02
 -9.5235556e-02
  1.1274050e-02
  1.9171978e-03
 -1.3147611e-03
  3.6624350e-02
 -7.4540928e-02
  9.7591924e-03
 -6.0203853e-03
 -7.9705067e-02
  7.5644027e-03
 -5.0356567e-02
 -3.4814053e-03
 -1.7881839e-02
  1.8594129e-02
  6.6822763e-03
 -4.7930978e-02
  3.2547057e-02
 -2.2482933e-03
 -1.1807188e-02
  1.1848927e-02
  8.5237399e-03
  3.4623581e-01
  2.2652568e-01
  1.5563454e-01
 -4.8531935e-02
  6.5484607e-01
 -1.4357804e-02
  5.1618826e-01
  2.6879862e-01
  6.1748337e-02
  1.4356426e-03
 -8.2656313e-03
  9.6081607e-02
  2.2660129e-01
  4.7503866e-02
  3.8193230e-02
 -3.0741790e-01
  8.0447066e-01
  6.1502986e-02
  2.8264672e-01
 -7.8890175e-02
 -2.1512687e-01
  1.8620253e-01
  4.9500190e-02
  5.3419594e-02
 -1.6479231e-03
 -3.2518167e-02
 -1.1697727e-01
 -2.2670425e-02
  3.7022598e-02
  3.0529991e-04
 -9.8413813e-01
  1.0924532e-02
 -1.0227376e-03
  5.5193692e-03
 -1.5253086e+00
 -2.0871691e-03
  1.5136174e-02
 -5.5242106e-03
 -7.1497941e-03
  4.6323679e-02
  2.0431919e-02
 -3.7444103e-01
  5.4168019e-02
 -3.7888844e-02
  1.4429151e-02
 -2.8066883e-02
  1.8279632e-03
 -2.7402498e-02
 -1.5560705e-02
  2.4413464e-03
  2.8420635e-02
 -1.7256638e-02
  1.7126467e-02
 -1.4080775e-02
 -6.3747205e-02
  7.5142503e-02
  1.2728735e-02
 -3.8516591e-04
  1.7827120e-02
 -8.2860015e-02
  3.7656706e-02
 -1.1884417e-02
  2.2660491e-01
  4.8700732e-01
  2.3803866e+00
 -7.2921873e-03
 -1.1143534e-02
  1.6603163e-02
 -7.4784872e-03
 -2.3870850e-02
  8.7485224e-02
 -4.6794945e-01
  2.1429891e-02
 -7.4999253e-03
 -5.0674956e-03
  1.8978301e-02
 -4.7717750e-02
  1.9715476e-01
 -2.7725449e-02
 -1.0144226e-02
 -1.3835510e-02
  2.4179000e-02
 -9.1340683e-02
 -2.1042714e-03
  7.5013870e-03
  3.3874083e-02
  5.7941537e-02
 -1.8282522e-02
 -1.7487640e-02
 -4.1423343e-02
 -2.2544505e-02
 -9.5683604e-04
  9.7520929e-03
  2.2854258e-01
 -7.0341736e-01
 -1.5571463e-02
 -7.9194553e-02
  1.3020643e-02
 -9.6247662e-03
  7.1087874e-02
  9.3327183e-03
 -1.1275948e-02
  7.5485418e-03
 -3.0324958e-02
  6.2151238e-02
  7.1017616e-03
 -3.7603237e-02
 -5.9209805e-02
 -3.5159602e+00
  1.0572875e-02
  1.0957101e-02
 -1.1278535e-03
  4.9253954e-03
  5.9796330e-03
  2.2033039e-02
 -2.4477618e-02
 -3.9866839e-02
  8.6181596e-02
  4.5445319e-02
 -2.9641742e-02
 -1.9791385e+00
 -1.0950888e+00
 -1.1927637e+00
 -8.0814809e-02
 -7.3812807e-01
 -6.5128785e-01
 -2.4669571e-01
 -1.9014850e-01
  3.9789755e-02
 -1.1197280e-02
 -1.3576339e+00
 -1.5597166e-01
 -8.3327398e-04
  1.5223554e-02
  3.6929775e-02
 -4.0144840e-01
 -3.9312464e-01
 -3.5992315e-01
  9.0970211e-03
 -5.3554842e-05
 -9.0093088e-01
 -1.2048725e+00
 -6.6570437e-01
  3.3144802e-02
 -4.1103993e-02
  1.4504763e-02
  4.1224793e-04
  1.6053440e-02
 -4.6094023e-03
  1.4701524e-02
 -1.3884447e+00
  3.2521656e-01
  2.0848987e-01
  3.1529248e-02
 -1.2705216e-01
 -6.1053736e-03
  2.1336017e-02
 -2.2711005e-02
 -9.1181053e-03
  6.6529978e-03
  1.1087985e-01
 -8.7470366e-03
  1.7546931e-01
  4.0148225e-02
 -1.9815871e-02
 -4.3830925e-04
 -7.0366770e-02
  1.1991285e-02
 -4.0491629e-02
 -3.0081833e-03
  2.9761893e-01
 -5.9521951e-02
 -6.4634912e-02
  1.3772507e-01
  1.6089750e-03
  1.0740481e-03
  3.9072342e-02
 -1.3920086e-02
 -1.7507374e-02
  2.2652729e-03
 -1.4737505e-02
  3.0897042e-02
 -2.2870447e-02
 -2.0002781e-01
 -6.5117770e-01
 -2.0238055e-02
 -3.2085218e-02
 -1.0078676e-01
  9.3543688e-03
  3.8984288e-02
  7.6723332e-03
 -2.4762426e-02
  5.2271474e-02
  5.3488038e-02
 -8.5620498e-03
 -2.2205153e-02
  1.1146814e-02
  3.9016448e-02
  3.2019593e-02
 -6.1635200e-02
  1.8569140e-02
  1.6038045e-02
  5.3552311e-02
  4.0408321e-02
 -1.8676788e-02
 -1.5428235e-02
 -5.7731438e-03
 -3.4402952e-02
  2.4273204e-02
 -9.9679381e-03
  2.4621476e-01
 -1.5518653e-01
 -4.2938802e-01
  4.1592619e-01
 -1.8463905e-01
 -1.3977612e+00
  6.5911573e-01
 -1.2989416e+00
  2.0327084e+00
 -1.4137154e-02
 -5.4412298e-02
  4.5911390e-01
  1.1993718e+00
  1.2320142e+00
  1.8630205e-02
 -3.5010189e-01
  1.4246793e+00
  3.4641013e+00
  4.7464976e-01
  3.1389284e-04
 -1.1280915e-01
  9.0196639e-01
  5.1262921e-01
 -9.2797428e-02
  2.8601217e-01
  9.4823213e-03
 -8.1286460e-02
 -4.4637412e-01
  4.8621278e-02
  9.5983565e-02
 -4.3675485e-01
  2.1576850e-01
  4.5549370e-02
  1.3077413e+00
  1.1531766e-01
 -7.9507548e-03
  8.4601867e-01
 -2.3681678e-02
  1.8615593e-01
 -1.8709950e-01
  4.8753653e-02
  4.0071732e-01
 -1.7462541e-01
  9.2018425e-01
 -4.4926386e-02
  2.0818073e-01
  1.0902680e+00
  1.5254962e-01
  4.7135592e-01
 -1.2825429e-03
 -1.5975421e-02
  3.5691673e-01
  5.1893868e-02
  8.0473006e-02
  1.9637708e-01
 -5.6538312e-05
 -4.0382795e-02
  7.1172109e-03
  6.8760641e-02
  1.4485151e-01
  2.2808000e-01
  1.7918744e+00
 -3.4972724e-01
 -5.5309784e-01
  7.3618519e-01
 -5.5251792e-03
  7.6572443e-03
  1.1186743e-02
  4.8645265e-02
 -1.5316262e-02
  2.9663995e-02
  5.3319787e-03
 -5.9606772e-02
 -2.0765744e-03
  4.6288237e-02
 -1.7068624e-03
  1.5741363e-02
 -1.0753251e-02
 -8.7495856e-03
  1.6724117e-03
  5.2856328e-04
  3.0767309e-02
 -2.8967472e-02
 -1.0622117e-02
  9.9793524e-03
  3.9297927e-02
 -1.5385987e-02
 -7.7960482e-03
 -2.9053560e-02
  1.4550397e-02
  1.5259337e-01
 -9.3465380e-02
  3.2810956e-02
 -2.4855487e-02
  2.0247346e-02
  4.1660452e-03
  6.6127330e-01
 -8.4657687e-01
  9.4567493e-02
 -2.6116582e-02
  3.5698306e-02
  1.7737448e-01
  2.0269082e-01
 -1.0263345e-01
  2.4472209e-02
 -9.6181259e-03
  3.4942713e-01
  7.2277528e-01
  2.6846149e-03
  2.3135783e-02
  3.4407744e-01
  1.6319892e-01
  2.3528293e-01
 -5.3270152e-03
  3.9632276e-02
 -7.7304663e-03
  2.0442283e-02
  1.0936775e-02
  1.4876558e-02
  1.9198479e-02
 -3.7711269e-01
  1.8595882e-01
  5.4300934e-01
 -1.0214291e+00
 -9.0504289e-01
  5.1627390e-02
  1.3536796e-01
 -7.8315130e-03
  4.3399397e-02
 -1.8685853e-02
  2.4127631e-01
  3.4472436e-02
  1.1238611e-02
  4.0590513e-02
  1.2989688e+00
  1.4187619e-02
  2.2798298e-01
  1.7345598e-01
  1.8659607e+00
 -9.7027551e-03
 -1.4700484e-02
  3.2915637e-02
  1.3944483e-01
  8.7994114e-02
 -2.6359200e-02
 -8.7042032e-03
 -1.4865670e-02
 -4.8701745e-03
  7.2629671e-03
 -7.2290073e-03
 -1.8499015e-02
 -3.9162064e-01
 -5.4656928e-03
 -2.2793472e+00
 -9.7481217e-03
  3.8838258e-03
  1.1677125e+00
 -1.2572925e-01
 -2.8084496e-01
  2.7492594e-02
  1.4231360e+00
  5.0299305e-01
 -1.1690103e+00
  1.2608680e-01
  5.4990746e-02
 -2.0311540e-02
 -2.7224831e-02
 -5.3136710e-02
 -1.9001327e-02
  1.0151085e-01
 -3.3523843e-01
 -1.1494311e-02
  7.4308091e-01
 -3.2185137e-03
 -1.8433075e-01
 -4.8245272e-01
 -7.1078187e-01
  3.6471698e-01
  6.8103813e-02
 -3.8047156e-01
  9.2021935e-02
  3.2985350e-01
  4.7336006e-01
  9.5277600e-02
  1.4186771e-01
 -1.2035262e-01
 -3.9164022e-01
 -3.1877484e+00
 -1.0811000e+00
 -6.6806354e-02
  3.4384203e+00
  2.1100935e-01
  8.8802922e-01
  7.7814490e-02
  2.3624910e-02
 -2.1608328e-03
  7.7146932e-02
  2.0655971e-02
  1.2045575e+00
  2.2228508e-01
 -4.6222529e-01
 -1.8251520e-01
 -6.8507987e-01
  4.3537098e-01
 -2.5884759e-01
  2.3193493e+00
  1.6906976e+00
  4.8005521e-01
  1.0233214e+00
  1.0985743e+00
  2.5227301e+00
  5.0847646e-02
 -4.8930499e-01
  2.1115248e-01
  4.6517986e-01
 -2.4974880e-01
 -1.8066759e+00
 -2.7090946e-01
  1.0627925e+00
  2.4944609e-01
  1.4719776e+00
 -4.1512689e-01
  1.1498500e+00
  1.9386144e+00
 -1.8674397e-01
 -1.0924249e+00
 -1.3479882e-02
  9.9637277e-02
 -7.3195571e-01
 -4.6017347e-03
  4.0636625e-02
  2.3532908e-01
  1.3231668e+00
 -8.1001365e-01
 -1.1449425e-02
 -2.3192925e+00
  5.8901049e-03
  3.8449038e-03
  4.2175227e-01
 -3.6998827e-02
 -1.8740399e-03
 -1.1415702e+00
  1.1792543e+00
 -3.8014386e+00
 -2.0034474e-03
 -5.2011669e-02
 -4.1684821e-02
 -8.3816729e-02
 -2.0449810e+00
 -1.0892180e-01
  2.9698646e-01
 -1.9457053e-02
  2.4080407e-03
  6.5916316e-03
 -7.6384909e-02
  2.6246872e-02
  8.5893105e-04
 -2.2713257e-01
  7.2578259e-02
  1.0868627e-01
 -8.6213080e-03
  7.0895177e-01
  1.3211465e+00
  8.1731182e-01
  4.2392504e-03
 -5.0231314e-01
  2.7632469e-01
  2.0956206e+00
 -7.2748262e-01
 -1.0577687e+00
 -1.1800538e+00
 -7.6372636e-04
 -1.7806804e-01
  1.3970118e+00
 -1.5233463e-01
  6.7572635e-01
 -1.3058574e-02
 -3.2568257e-02
 -3.0116287e-01
 -1.4042389e+00
 -3.1401676e-03
 -7.1193399e-03
  4.2159849e-01
 -3.6528828e+00
 -5.5997843e-01
 -1.9332433e-02
  5.5487817e-03
  2.3999939e-02
  2.3564254e-01
  1.5930410e-02
 -1.0091031e+00
  8.9000368e-01
 -2.3812442e-03
  5.4495126e-01
  5.1399738e-01
 -1.1703815e+00
  5.9263164e-01
  1.1850604e+00
 -2.9941633e+00
 -1.5682294e+00
  2.4982235e-01
 -3.6330331e-02
 -1.6141050e-02
 -1.1205284e-01
 -2.7590198e-02
 -1.9441317e-01
  1.3348803e-01
 -1.3558680e+00
 -4.8218556e-02
 -4.6027061e-02
 -3.0160612e-01
  1.3437046e-01
  1.3171859e+00
 -1.3858545e-01
  8.1488080e-03
  5.1332079e-03
  3.1338710e-01
  2.8798008e+00
  1.5189289e+00
  1.6474625e-02
 -3.0951705e+00
 -1.6916071e+00
 -1.0918843e+00
  5.0452955e-02
 -1.6556667e-02
  6.8718612e-01
 -1.4894323e-02
  1.9136367e-02
 -3.3821482e-02
 -3.5787011e-03
  1.5026626e-01
  1.0743935e-01
 -7.9360884e-01
  6.0090899e-01
  8.8999838e-02
  7.3514238e-02
  1.4695761e-01
  5.0102293e-01
 -3.9810160e-01
  8.9331007e-01
 -7.3517698e-01
  3.1206861e+00
  1.6505846e+00
  1.2922751e+00
 -1.4988723e+00
  2.4605982e-01
 -1.4644253e-01
 -8.5369509e-01
 -1.7983364e+00
 -1.5182178e-02
 -2.2624290e+00
  1.1914142e-03
 -4.5230549e-02
  3.1926218e-01
 -3.1882361e-02
 -5.5434849e-02
 -8.8360887e-03
  4.2319879e-02
  2.1501057e+00
  1.5377560e-02
  4.6797916e-01
 -1.3387778e-01
  1.3188792e+00
  1.4692376e+00
 -4.8268080e-02
 -8.1308700e-02
 -1.0882644e-01
 -1.0749853e+00
  9.8404042e-02
 -3.2035789e-01
  1.1721634e+00
 -4.2274643e-02
 -1.4229891e+00
 -1.5738541e+00
 -3.6443985e-01
  1.1897399e+00
  3.2049228e-02
  2.2661051e-01
 -1.9390956e+00
  4.9213869e-03
 -7.3391062e-01
  5.5054342e-03
  4.0283081e-01
 -2.3990062e-01
 -1.2632755e+00
 -1.6039099e-01
  2.6736157e-02
 -1.5102062e-01
  1.7684592e-01
  1.6277137e-01
  4.1837890e-02
 -4.2478809e-01
 -5.4020196e-01
 -3.0117127e-01
 -4.3091616e-01
  8.9939481e-01
  6.3570404e-01
 -1.0725483e-01
 -3.8156477e-01
 -2.1497636e-01
 -2.0180313e-01
  1.3771743e-02
 -2.9185182e-01
 -4.7106653e-02
 -2.1568297e-03
 -3.8589691e-03
 -2.3166507e-01
 -2.0847366e+00
 -1.3188923e-02
  4.9565971e-01
  2.2583638e-01
 -7.4897334e-02
  1.1902275e-01
  3.2365298e-01
 -4.1189697e-01
  6.9502515e-01
 -1.7414081e+00
 -1.0395353e+00
 -6.6712952e-01
 -9.1459386e-02
  3.0171081e-01
  6.7833494e-03
  1.7050999e+00
  5.0190175e-01
  1.1770720e-01
  1.6235687e-01
 -2.6119471e-01
 -1.8849781e-01
  2.8778972e-02
 -1.6323490e-02
  1.4967146e+00
  9.9449810e-03
 -8.5300274e-02
  5.9366482e-01
  8.9564013e-01
  8.4349924e-01
 -9.4371643e-03
  1.1666136e-01
 -1.7719822e+00
 -1.1109114e+00
  3.8834602e-01
 -1.1136156e+00
  6.9960840e-02
  1.7833729e+00
 -1.0004737e+00
 -4.7156331e-04
  1.1997541e-02
 -1.4046385e-02
  1.7017326e-01
 -1.2221708e-01
  9.7282177e-01
  3.9882613e-03
  9.6799898e-01
  2.2873057e-01
 -1.2895190e-02
  7.9521731e-02
  2.5663745e-02
  2.7188304e-01
 -6.0712552e-01
 -6.8527251e-02
 -2.0291610e-03
 -3.3399094e-02
  2.2780370e-02
  5.1009542e-01
 -4.3934248e-03
  1.7513584e-01
  9.3607191e-04
  9.7420013e-01
 -1.4931550e+00
 -4.1737504e-02
  2.2610705e+00
 -1.1408405e-02
 -1.0115970e-01
 -6.5881692e-02
  2.0954991e-03
  2.9732144e-01
  3.6314152e-02
  6.4745307e-02
  3.9153392e-03
 -7.0848968e-03
 -1.7951292e-01
  2.0722231e-02
  8.3185099e-02
  1.6011858e+00
 -1.8990930e-02
  5.7872140e-01
 -1.2401480e-01
 -6.4616144e-01
 -1.2614983e+00
  2.0060900e-01
  1.3752143e+00
 -8.7793536e-02
 -1.2765361e-01
  6.0944092e-01
 -4.1740332e-02
 -5.2549720e-02
 -2.7457502e-02
  2.4640430e-02
 -3.0086774e-01
  4.9069743e-03
  4.1524339e-01
 -1.4074440e-03
  2.2289684e-02
  1.2466494e+00
  1.8500713e-01
  6.0833198e-01
 -5.2852216e-03
 -2.4435757e-02
  1.0480062e+00
  7.3491722e-02
  3.3612207e-01
 -3.3474244e-02
 -4.0546272e-02
 -1.9910695e-01
 -4.2688373e-01
 -9.0137184e-01
 -8.9912243e-02
 -1.8065816e+00
  8.0397099e-01
  2.6471816e-02
 -9.0295029e-01
  7.6166999e-01
 -2.3803024e-01
  1.6203346e+00
  6.7020203e-03
  6.9373429e-01
 -6.1844677e-02
  1.4548565e-01
 -9.3604445e-02
  1.0246383e+00
 -4.4568233e-02
 -2.6292109e-01
  1.3453497e+00
 -7.3961252e-01
 -8.9904014e-03
  1.6428329e-01
  2.2852506e-02
 -5.9172004e-03
  8.1832445e-01
 -2.0472292e-02
  9.9222913e-02
  5.8822006e-02
  8.9358866e-01
  3.5607967e-01
  9.0162060e-04
  2.9825954e-02
 -4.7743633e-01
 -3.4828120e-01
 -7.6635494e-03
 -2.6442578e-02
 -9.4106805e-01
 -1.2939581e-02
  2.3588376e-02
  2.7756950e-01
 -4.1378081e-01
 -7.6853663e-01
  4.1013439e-03
  7.7680725e-01
 -6.5890020e-01
  2.3542805e-01
  3.7157264e-01
  1.4595667e-01
  7.7941388e-01
 -6.3384116e-01
  7.2556413e-03
 -2.5997717e+00
 -2.0456553e-01
  1.0720775e+00
  2.5381026e-01
  9.5882379e-02
 -4.4997188e-01
 -7.0125186e-01
 -1.8631009e-02
 -4.1258222e-01
 -6.1241664e-02
  1.0619693e+00
  3.4535494e-02
 -6.4403219e-03
 -2.4208090e-01
 -2.7439214e-02
 -1.5134068e-01
 -2.1794196e-02
 -9.8382682e-01
  9.6798569e-02
  2.3792000e+00
 -4.7475475e-01
 -1.1894552e-02
  4.6890488e-01
  6.7666894e-01
  4.2101553e-01
  6.2314844e-01
  4.1712606e-03
  7.4341051e-02
  1.1467606e+00
 -1.7023761e+00
  4.2785734e-01
  3.3229101e-02
  4.9304083e-02
  1.0177047e+00
 -3.6351499e-01
 -4.9575147e-01
 -1.8022696e-02
 -2.0600630e-01
 -1.0586450e+00
  2.4588915e-02
 -2.7411762e-01
  5.5284810e-01
 -1.1204695e+00
  8.5772115e-01
  2.4710980e-03
 -3.0095136e-01
  3.2660302e-02
  6.4660555e-01
  1.0422557e-01
 -2.0273621e-03
 -1.3261987e+00
 -1.5914591e-01
 -1.2979866e+00
  1.8914531e-01
  4.1120023e-01
  1.6901304e+00
  2.4842690e-01
  1.0990559e+00
  3.4462410e-01
 -2.2341046e-02
  1.7880079e+00
 -8.9196974e-01
  1.4056616e-01
 -1.7652173e+00
  1.2501454e-01
 -1.1352446e+00
 -4.8941261e-01
 -6.2033415e-01
 -6.9555819e-02
  3.4285489e-01
  1.4197611e+00
 -1.9018069e-03
 -1.2901756e-01
  1.7100102e+00
 -1.7317197e-01
  4.7213426e-01
 -1.8777299e-01
 -9.5270479e-01
 -3.6396470e-02
  6.4559561e-01
  1.4147884e+00
  3.4938055e-01
 -1.5764439e-02
  3.8862389e-01
 -6.6247240e-02
  1.3323807e+00
 -1.0169180e-01
  2.3856737e-01
 -6.8258309e-01
 -4.5039408e-02
 -1.7104864e-02
  6.7472368e-01
 -5.4217595e-01
  1.7363465e-01
 -5.6692672e-01
  7.1714826e-02
 -6.9891110e-02
  1.2036492e+00
 -9.0105087e-01
 -3.4837031e-01
 -1.6726722e-01
  2.4392488e+00
  1.2914791e+00
 -1.6776381e+00
 -1.7425210e+00
 -5.3279513e-01
 -1.0796974e+00
 -1.8389971e+00
 -7.4083537e-01
  5.1625617e-02
  2.1169856e+00
 -3.2245159e-01
  8.7160861e-01
 -3.1567729e+00
 -7.1291447e-02
  1.6580918e+00
  1.6325866e-01
 -1.5593010e+00
 -8.0218869e-01
  1.4716206e-02
 -2.0724249e+00
  5.3279918e-02
 -5.3732842e-03
  3.4788885e+00
  3.6995411e-02
 -7.3681444e-01
  1.7330829e+00
  3.2356033e+00
 -4.1318785e-02
 -3.1056977e-03
 -9.7861789e-02
 -4.0215645e-03
  6.6620809e-01
 -1.8717617e+00
  1.3757597e-02
  5.5139112e-01
 -5.1504385e-02
  1.6122155e+00
 -6.5365452e-03
 -2.7329769e-02
  7.4231185e-02
  9.0801626e-02
 -2.3070729e+00
  4.1952419e-01
  3.8613651e-02
  1.4017396e-02
 -1.6287978e-01
  2.8655490e-01
 -6.0536903e-01
 -3.4129062e-01
 -6.4819026e-01
 -1.9321246e-01
 -1.3240736e+00
  1.9387798e+00
 -1.6561830e-01
 -2.3447418e+00
 -2.0263214e-02
 -2.6351088e-01
 -4.1288596e-01
 -6.4159080e-02
 -1.6380099e-03
 -3.4065880e-03
  3.6294349e-03
  1.1603858e+00
  2.1960819e-03
 -1.8180404e-02
  4.7399122e-01
  2.5751969e-01
 -1.7689399e-02
 -4.9387747e-01
  3.2690642e+00
  1.7204412e-03
 -6.8914098e-01
 -1.6273066e+00
  1.2381291e+00
  6.9267648e-01
 -1.1944219e+00
 -1.3233396e+00
  2.1062837e+00
  1.0844266e+00
  9.2875488e-02
 -1.7842144e-01
  2.9084107e-01
  4.4550860e-01
 -1.3799507e-02
 -1.2112433e-01
 -1.1006942e-01
  2.9929155e-02
 -1.8344285e-02
 -3.8625311e-02
 -5.6301754e-02
  1.3439183e-01
  2.0485029e+00
  3.3309606e-01
 -4.7026087e-02
 -2.8996378e-01
 -4.2121909e-03
  2.3750715e+00
 -2.1288855e+00
  2.7904350e-02
 -2.0988309e-01
 -2.1076146e-01
  1.0392059e+00
  1.0334948e+00
  4.8580143e-01
  2.2603960e+00
 -2.4850461e+00
  2.3445022e-01
  4.9838245e-01
  2.4909975e-02
  1.6899388e-01
  9.6662074e-02
 -2.8620787e+00
  1.2166868e-01
 -9.4159953e-03
  1.1272460e+00
 -3.2363251e-02
 -2.1026592e-01
  8.5949665e-01
  4.1004099e-02
 -5.1686150e-01
 -2.1309757e-03
 -2.2550931e+00
 -1.7574675e-01
 -2.4585144e-01
  1.9542401e+00
 -2.3502938e-01
  2.5878847e+00
 -5.3323108e-01
 -8.6651057e-01
  2.6240385e+00
  1.7187928e+00
 -1.4679520e+00
  1.3335712e+00
 -9.3409330e-02
 -1.5539397e-02
 -2.6264587e-02
 -8.8842225e-01
  8.0891871e-01
  7.8741834e-03
  4.5009665e-02
  1.2023322e-02
 -4.8885420e-01
 -5.9732598e-01
  4.3296963e-02
  1.6692736e+00
  2.1583147e-03
  4.7695171e-03
  2.9479532e+00
 -3.1758514e-01
  3.9884802e-02
  1.4384784e+00
 -3.3487907e-01
 -9.7348386e-01
 -1.1136792e+00
  6.8470836e-01
  6.3370168e-01
 -1.5809920e+00
 -9.1076565e-01
 -8.7735838e-01
 -3.3260751e-01
  1.2435281e+00
 -8.6086121e-04
  7.5616038e-01
 -6.5269165e-02
 -8.7947297e-01
  8.1699878e-01
 -2.3705672e-01
 -1.2140655e-01
 -1.1741499e+00
 -7.3874272e-02
 -3.5098311e-01
 -5.3267695e-02
  6.1065465e-01
 -2.8046763e-01
  1.1510547e-01
  3.6845465e+00
 -3.6917219e-01
 -3.9227670e-01
  8.3603030e-01
  3.8800815e-01
 -2.6323399e-02
  3.5735482e-01
 -1.4968006e-01
  1.9041389e-01
 -1.3922296e-01
 -3.0530229e-02
  2.3609234e-01
 -4.7982225e-01
 -7.8944582e-03
  2.1534383e+00
  4.1276414e-02
  2.3394252e-01
 -1.4930642e-01
  7.7918571e-01
 -5.0729614e-01
  3.5484764e-01
  7.0947188e-01
  1.2844370e-01
 -4.8453158e-01
  7.4097306e-01
  1.6041544e-01
  1.5119174e-01
 -7.5682831e-01
  1.6866449e+00
  2.1611036e-01
 -3.4358597e-01
  7.4872047e-01
 -1.9456095e+00
 -7.3622711e-02
 -2.6392046e-01
 -2.9833102e-01
 -8.4922209e-02
 -2.0781600e+00
 -2.1463580e-01
  1.9760550e+00
 -6.9113828e-02
 -2.1294873e+00
  6.7476714e-01
  1.1569315e+00
 -2.7843206e+00
  4.5142318e-03
 -1.2404883e-01
 -1.3526460e+00
 -3.1919632e-02
  3.8079266e-02
  1.7902408e-02
 -3.7812519e-01
  1.9200791e+00
  1.6188736e-01
 -7.5156039e-01
 -1.0985978e-02
  5.7037276e-01
 -2.0569286e+00
  1.5505086e-01
  1.0875667e+00
 -5.5655688e-02
 -2.8878564e-01
 -1.0046221e+00
 -1.7188733e-02
 -9.6472852e-02
  7.0168436e-02
  2.4312091e-01
 -8.4675533e-01
 -2.5055793e-03
 -3.3298438e+00
 -2.6310689e-03
  5.1504183e-01
  6.2268984e-01
 -1.1996471e-02
 -8.1663221e-01
  1.9351097e-02
 -6.5102893e-01
 -2.7459540e+00
  4.2998582e-02
  1.2667100e-01
 -3.6159020e-02
  5.3629202e-01
  1.5455234e+00
 -2.1002300e-02
 -5.0704545e-01
  8.3350064e-03
 -9.4924942e-03
 -1.2177086e+00
  1.2656584e-02
  8.4781483e-02
  1.5367439e-01
  2.6870809e-02
  9.0733975e-01
  6.3567378e-02
  5.7398897e-02
  1.3580761e-02
  6.6872889e-01
  1.0912340e+00
 -6.1112392e-01
 -1.3687274e+00
  2.5940785e-01
 -2.7046841e-01
  5.2132565e-01
 -3.4222770e-01
 -4.5240629e-02
  1.8932955e-02
  1.1760854e+00
  8.6235780e-01
  1.4619225e-03
  5.1686811e-01
 -2.8820544e-01
  2.2635696e-02
  1.1862673e+00
 -1.6506465e-01
 -4.7386733e-01
 -4.7539717e-01
 -5.2971935e-01
 -3.9057252e-01
 -1.4175689e-01
 -2.3225510e-02
  5.6643084e-02
  3.0295771e-01
  1.3553374e+00
  7.3171842e-01
 -3.2379383e-01
 -1.4167231e-01
  1.7931074e+00
  4.8889199e-01
 -2.6720431e-02
  6.9331013e-02
  3.3265855e+00
 -1.5817435e-01
 -3.2034513e-01
  1.0882949e+00
 -4.9307248e-01
 -2.8640006e-02
 -1.8606128e-01
  1.0756860e+00
  1.9556811e-02
 -6.2774575e-01
  4.3980484e-03
 -1.0128019e+00
 -8.1990734e-02
  2.1864720e-01
 -1.9464256e-01
 -2.1131136e-03
 -4.1468017e-02
  1.3515829e+00
  4.1359045e-02
 -2.8832066e-01
 -3.5541958e-01
 -8.8623101e-01
 -2.0278682e-01
 -2.2088332e-02
  1.3241602e-01
  3.3213904e+00
 -1.2995477e+00
 -6.6784829e-02
 -4.0875721e-01
  1.7032586e-01
 -5.8644883e-02
 -3.2745275e-01
  1.5656253e+00
 -4.8382255e-01
  1.3144366e-02
  8.4522033e-01
  4.6979807e-02
  1.2078985e+00
  2.0454484e-01
  1.1814976e-01
  1.2337811e-02
  1.3653136e+00
  4.5737073e-01
  1.4807736e+00
  8.7567770e-01
 -9.8504019e-01
 -8.5315961e-01
  2.5105420e-01
  2.6212844e-01
 -1.9178846e+00
  1.4101242e-01
  4.5440190e-02
  7.8481674e-01
 -6.5074074e-03
  5.6731445e-01
 -3.2467175e-02
  1.1677744e-01
  1.6089474e-01
 -1.5164413e-02
  9.5341307e-01
 -8.3372682e-01
 -3.0838868e-01
 -2.0058259e-01
 -7.3775515e-02
 -9.8681241e-02
 -1.9026645e-02
  2.4195726e-01
 -3.3455771e-01
  1.4079773e+00
 -7.0478880e-01
  4.5229152e-01
 -6.9743299e-01
  1.3084941e+00
  3.4000826e-01
  3.5790149e-02
 -7.7881134e-01
  1.0141964e-01
  6.0029602e-01
  3.6279476e-01
  6.3790727e-01
  6.0612682e-02
  6.0679321e-03
  5.0797421e-01
 -1.7585108e-02
  5.9939510e-01
  3.2083713e-02
  2.9552028e-02
 -4.9608642e-01
 -2.8860164e-01
  2.1407966e-01
  1.5003384e-02
  4.5496413e-01
 -9.7611286e-02
  1.5785240e-01
 -1.0861534e+00
  4.1386035e-01
  9.5450748e-03
  1.0461855e+00
 -5.3890669e-01
 -4.5737657e-01
 -8.5436130e-01
 -1.4987595e-01
  1.4350719e+00
  1.1479514e+00
  1.5823911e+00
 -5.4314989e-01
 -8.2257837e-01
 -1.4498878e-01
 -9.2753887e-01
 -5.8142620e-01
  5.2663189e-01
 -5.2649692e-02
 -6.3299239e-02
  5.6305015e-01
 -2.1995516e-01
  1.5251424e-02
 -4.7719419e-01
 -1.2023430e-01
  9.6895359e-02
 -8.6670130e-01
  2.5714299e-02
 -4.0346822e-01
 -3.5689884e-01
 -1.4555439e-02
  1.6183170e+00
  4.1937786e-01
 -7.0207059e-01
 -1.7696455e-01
  3.4581482e-01
  4.8170665e-01
 -1.6542302e-01
 -5.3945339e-01
 -2.0889091e-01
  1.4922329e+00
  5.2728081e-01
 -9.7887909e-01
  3.3885404e-01
 -2.8894481e-01
 -1.6379116e-01
 -2.6132473e-01
  8.8539869e-01
  1.9058772e+00
 -5.2330583e-01
  2.4209503e-02
 -2.7275640e-01
  4.2044759e-02
  1.1921494e+00
  2.2863314e+00
 -1.0250584e-01
 -1.6849107e+00
  1.2356234e-01
  3.0679634e+00
  1.3241179e+00
 -6.6895768e-02
 -7.0742264e-02
  2.1835495e-02
 -5.0840029e-03
 -1.2891195e+00
  3.2346014e-02
  3.2154015e-01
  7.0341516e-01
 -9.4801031e-02
  2.3191868e-01
 -7.4340373e-02
 -1.0684536e+00
  2.3769953e-03
  9.7848737e-01
  5.6153381e-01
  4.0247742e-02
 -4.6566716e-01
 -1.3064596e-01
 -1.9355264e+00
  7.1862757e-01
  6.3063907e-03
  2.1267886e+00
  1.0902908e-01
 -1.0290246e-03
 -6.9660139e-01
 -5.5026249e-03
  7.8110783e-03
  7.7870533e-02
  1.9209657e-02
  1.2869232e-02
 -6.2828632e-03
 -7.4177362e-02
  2.2258343e-02
 -2.4338080e-01
  1.7850876e-01
  7.6161921e-02
  1.0362219e-01
 -1.2284762e+00
 -9.8592716e-01
  8.1371897e-01
  3.2859391e-01
 -2.7117500e-01
 -6.2874156e-01
 -3.8488333e-03
  1.1506008e+00
  1.1142293e+00
  1.1611389e-01
  3.7848018e-02
  1.3451383e-02
 -1.0319258e-02
  8.7720618e-02
  1.8823802e-01
 -2.3719639e-02
  1.0960136e-02
  9.1606349e-01
  2.8888581e-02
  4.1861024e-02
  7.1503341e-02
 -7.0327749e-03
  1.2209686e+00
 -3.8127422e-01
 -1.4669383e-01
 -9.4699785e-03
 -7.8921944e-02
  2.9784396e-01
  6.3908443e-02
 -1.0374556e+00
 -1.1772932e+00
 -1.4328696e+00
 -1.3777566e-01
  1.0618923e+00
  9.7909492e-01
  2.2265507e-02
  4.9325365e-01
  4.2977545e-02
  2.9526746e-03
  3.3637840e-01
  1.0174464e+00
 -4.6407372e-02
 -8.5896963e-01
 -6.5382654e-03
 -1.0034475e+00
  8.7456965e-01
  3.7179284e-02
  1.1931401e+00
  7.7028428e-03
  4.4540963e-01
  8.4481388e-03
 -6.8972653e-01
  4.8706302e-01
 -3.3722956e-02
 -9.8917931e-02
 -5.7245392e-01
 -2.7406917e+00
 -1.3793896e-01
 -4.3159240e-01
 -2.7339945e+00
 -3.4767175e-01
  2.5775206e+00
 -1.8071439e+00
  4.9102835e-02
  1.8269655e-01
  2.1017386e-02
 -4.9015656e-01
 -5.0877225e-02
 -6.4684413e-02
 -2.3159602e-01
  1.4439369e-02
  1.4706683e+00
  4.2074311e-01
  2.4276140e+00
 -6.1410088e-02
 -3.2025866e-02
  2.7601117e-01
  1.2107521e+00
  8.8028139e-01
  1.0915278e+00
  1.4090339e+00
 -1.6983570e+00
  5.7023150e-01
 -2.6182902e+00
  7.5460112e-01
  8.5100524e-02
 -1.7016234e-01
 -1.3859418e-01
  1.6202599e-02
  1.9017722e-02
 -7.7752143e-02
 -6.6275336e-02
 -1.6673713e+00
 -1.1109474e-02
  2.3604438e-02
 -6.8053357e-02
 -1.0068773e-01
 -3.9853409e-01
 -3.0828249e-02
  1.6661046e-01
  1.3432512e-02
 -6.7290801e-01
  8.7396264e-01
  6.3560428e-03
  1.3093922e-01
  5.2281693e-03
  2.6574332e-01
 -2.2412615e-01
  8.0973387e-01
  2.5214767e-01
  3.2984146e-01
 -1.6961533e-01
  4.5171559e-01
 -1.4070323e-01
  1.8862094e-03
  1.6640627e-01
 -1.2767299e-02
 -1.0585881e+00
 -1.2791909e-02
  9.7479570e-01
 -2.5819740e-01
 -1.5197500e+00
 -3.4847343e-01
 -1.6494389e+00
  7.4729395e-01
 -8.2796454e-01
  1.1299942e+00
  1.1630722e+00
  4.6367586e-01
 -5.6814706e-01
  2.6511908e+00
  2.9580328e+00
 -9.9456978e-01
  6.6057347e-02
 -4.5808399e-01
  6.8897396e-01
 -1.1014645e+00
  1.7442205e+00
  1.6932906e-01
  1.8347901e+00
 -2.5284203e-02
 -3.5570832e-03
  8.2082742e-01
  2.6034079e-02
 -8.0017410e-02
 -8.8152522e-01
  1.2579989e-01
 -1.8897679e-01
  1.0925332e+00
 -8.3845869e-02
  5.5368952e-02
 -1.2649587e-01
  3.7555352e-01
  3.2767817e-01
 -1.8810575e+00
  6.7409641e-01
 -1.4546055e+00
 -7.5441033e-01
 -2.5538301e-02
 -1.0459665e-01
  6.9104053e-02
  1.2714416e+00
 -1.2915911e-01
 -1.3847432e-01
  1.6529113e+00
 -1.0704753e-01
  5.3368747e-02
  3.9390819e-03
 -5.5835698e-02
 -5.6449378e-01
 -4.3315694e-01
  1.9891580e+00
 -1.0894611e+00
  1.1158938e+00
  5.2375305e-01
 -2.2803849e-02
  4.7913459e-01
 -1.2218003e+00
  3.6699403e-02
  1.3376569e+00
 -5.8110422e-01
  1.0211734e+00
 -1.6622476e-02
  3.4231364e-03
 -5.2124846e-01
 -2.4929829e+00
  4.6068734e-01
  1.3689208e+00
  2.6689646e-01
  1.9550687e+00
  1.4757126e-02
 -3.4119695e-02
 -4.2182028e-02
  1.6975395e-02
 -3.7958261e-02
  7.3309895e-03
  1.8898773e+00
 -1.8480254e+00
  6.7719840e-03
  2.5492541e-03
  5.4729860e-02
 -3.6962874e-02
 -4.1253516e-01
  1.7675560e-02
  1.3322918e-01
  9.9611694e-01
 -1.0880752e+00
  5.8490515e-01
  2.5008047e-02
 -6.9918344e-03
 -5.6020850e-01
  4.1859573e-01
  2.2235253e+00
  3.2404397e-02
  1.7678271e-01
  3.7648258e-01
 -4.3003399e-02
 -1.9828297e-02
 -3.4567799e-02
 -5.3952690e-02
  1.9222358e-02
 -6.6516576e-03
 -3.8112473e-01
  2.0272599e-03
  1.9877434e-02
 -1.1455756e-02
  8.5944302e-02
 -2.1147590e+00
 -1.4172543e-02
 -2.2719767e-02
  1.5198379e+00
  1.0387627e+00
 -5.7449538e-01
  2.7855556e-02
 -9.2381716e-01
 -9.7713590e-01
 -1.3676704e+00
 -1.5684278e+00
  5.8126993e-02
  2.5378266e-01
  4.1717712e-02
  4.7259014e-02
 -1.3984891e-02
 -7.0361868e-02
 -1.0222552e+00
  2.9159479e-03
  8.5977155e-01
 -6.7681229e-01
  5.0993942e-02
  2.8394539e-02
  1.6714515e-02
 -5.9248132e-01
 -2.7501435e+00
  8.7358383e-03
  1.5095682e-01
 -3.1119771e+00
  2.8229892e+00
  1.3507738e+00
  1.0873582e-02
  1.4660248e-01
 -1.2964755e+00
  4.9809781e-01
 -1.3105867e+00
  1.6960436e-02
  5.2816014e+00
  9.8828999e-03
 -1.8427042e-02
 -1.2059989e-02
 -2.9622935e-02
  2.7125301e-03
  7.5710423e-02
  3.2833737e-01
 -2.2712793e+00
 -2.8300036e-02
 -3.4612626e-02
 -3.7388049e-02
 -1.2328563e+00
  1.1704414e-01
  8.7057926e-02
  6.5302914e-03
 -2.5089452e+00
  1.4273326e-02
  1.2235016e+00
 -7.5585488e-04
  1.2074916e+00
  5.4527169e-01
 -3.0916123e-02
 -1.2042876e+00
  1.3128512e-02
  4.2727616e-01
  3.5974212e-02
 -6.6086571e-03
  3.5686228e-02
 -5.0826345e-02
 -7.7053376e-02
 -1.1138453e-02
  4.9188218e-01
 -7.7464294e-01
 -4.8737349e-03
  1.2766561e-02
 -9.9624954e-03
 -7.4062079e-02
  3.0172566e-01
  9.9140685e-04
  7.4345988e-01
  4.1652569e-01
 -1.1136566e+00
  6.3599072e-02
 -1.5486841e-02
 -9.5593393e-01
  7.9185283e-01
  1.4699770e+00
 -5.7726616e-01
  1.9207703e-02
  2.4410909e-01
 -5.4589123e-02
 -5.5315033e-02
  1.1791055e-03
  1.0504208e-02
 -1.1682472e+00
  7.2869234e-02
  4.5137113e-01
 -4.9453977e-01
 -2.9522648e-02
  8.1844116e-03
  5.8521863e-02
  1.7681701e-01
  1.1740485e+00
 -4.9473431e-02
  3.5698500e-02
  1.3115745e+00
 -6.9063169e-01
 -7.2703278e-01
 -3.9385583e-02
  3.9295424e-02
  3.2004986e+00
  1.2747115e+00
 -9.0374058e-01
  1.7793640e-02
  1.2945817e+00
 -7.5240238e-03
 -6.3719288e-02
  9.7413203e-03
  3.4195997e-02
  1.2383237e-01
 -4.7747284e-02
  5.8435184e-01
 -8.5135359e-01
  1.8564858e-02
  2.2587273e-02
  2.7278723e-02
 -5.0970709e-01
  1.6104034e+00
 -1.1366259e-02
  1.0100545e-01
 -1.9485974e+00
  1.7227133e-01
 -4.5211223e-01
 -5.5200264e-02
  9.1626501e-01
 -3.6958978e-01
 -1.3124356e+00
  9.8847991e-01
 -1.2978497e-01
  3.2793319e-01
  3.9922498e-02
  6.1529153e-04
 -3.2070622e-02
  3.3027187e-02
 -1.6725787e+00
  3.5877209e-02
  6.7201620e-01
 -2.7722147e-01
  1.0713773e-02
 -1.6489638e-02
 -6.8805940e-02
 -2.3653400e+00
  1.1422971e-01
 -2.8326565e-03
  6.7509103e-01
 -1.9467900e+00
 -8.3946121e-01
 -6.0870677e-01
  2.8033588e-02
  1.7557852e-01
 -6.8331414e-01
 -1.0688063e+00
 -7.1084276e-02
 -1.9859044e-02
 -2.1596821e-01
 -7.1284190e-02
  1.8162325e-02
 -4.1331299e-02
 -1.9128406e-01
  5.0629818e-01
 -1.3601293e-02
  6.6976950e-02
 -2.4676770e-01
 -7.4075073e-02
  8.8581562e-02
 -2.2702347e-01
 -1.0554160e+00
 -2.0633574e-01
 -1.6773227e-03
  1.0698692e+00
  7.2603190e-01
  1.3958594e+00
  5.7718897e-01
  1.3831167e-02
 -9.0784645e-03
  1.1602281e+00
 -2.2487535e+00
 -1.4054193e+00
 -5.2885275e-04
  9.0756017e-01
 -2.2077242e-02
  6.8191364e-02
 -1.4686599e+00
  1.4209206e-02
  2.1308041e+00
  1.4259820e+00
  7.7985090e-01
  1.8389224e+00
  5.0129510e-02
  1.4574969e-01
 -3.1918921e-02
  1.9024423e+00
 -1.1368430e-01
  2.6520850e-02
 -4.9974294e-03
  2.2891412e+00
 -3.6858413e-02
  6.7740101e-01
  3.1047871e-02
 -3.2089893e-02
  1.4382800e-01
 -6.1889720e-01
  8.5232221e-03
  1.5999071e-02
  6.2526716e-03
 -1.5254593e-02
 -3.8852416e-02
  3.0284492e-02
  1.3128705e-02
  4.3765759e-01
 -3.4038662e-03
  4.2294580e-02
  2.0472600e+00
  6.5809297e-03
 -1.2374057e-02
 -2.1619843e-03
  4.0081169e-02
  1.1927639e+00
  4.2765718e-02
  5.4783928e-01
  6.2053679e-03
  1.7109120e+00
 -8.9844894e-01
  2.2066118e-02
  5.5808455e-01
  1.1458866e-01
 -5.8038171e-02
  2.7300468e-01
  1.5312575e-02
 -1.6989434e+00
 -1.4178998e-02
 -3.2998141e-02
  5.8868341e-03
 -5.4427873e-02
 -1.0470589e+00
  1.3984622e-01
  7.3590167e-03
 -1.8385409e+00
  2.9845042e-02
 -8.4669322e-02
 -2.4271097e-02
  1.1919519e+00
 -2.9183143e-01
 -4.6083555e-03
  8.5229799e-02
  1.6348724e+00
  1.2458140e+00
 -1.1205680e+00
 -8.3855338e-02
 -1.1349390e-01
  2.5226686e+00
 -2.7436118e+00
  4.7760686e-01
  3.5251034e-03
  1.3315936e-02
  2.8914930e-02
 -1.5619768e-02
  7.0234716e-02
